2144 128
， -0.01660555 -0.37842906 -0.16284283 -0.22868954 0.3467995 -0.091301456 -0.10430114 -0.02712054 0.0058987536 0.090094864 0.024718143 0.11789105 0.11462002 -0.1549288 0.044495717 -0.05044314 0.04197366 -0.24070424 -0.16854897 0.10636919 -0.15529837 0.23086089 0.19289608 -0.13146864 0.1840382 -0.046846196 0.26701087 0.09803529 -0.062475998 0.026959972 0.092544354 0.08567114 0.10896616 0.06651206 -0.018066388 -0.34321034 0.032874554 -0.1407793 -0.014417465 -0.0364175 0.25215438 0.13354328 0.032075293 0.23794423 -0.019462317 -0.12799904 0.11042059 0.013305979 -0.04705603 -0.022887515 -0.0046414067 0.083687276 0.11879162 -0.021615747 -0.06279539 -0.14625709 -0.0338801 0.09137798 0.124488704 0.002817315 0.15260631 0.15897489 -0.008801955 0.010424674 0.1529448 -0.01109281 0.05641327 0.27338096 -0.32843506 0.15241657 0.30582687 0.026441712 0.045147974 -0.015178508 0.012489813 -0.02685118 0.009845012 -0.026777277 -0.11539389 -0.057301387 -0.07774344 0.23518969 -0.010865279 0.02278091 -0.19059585 0.04621426 0.08918178 0.054309845 -0.023400974 0.15635434 -0.13922887 0.31168476 -0.016821403 0.106960714 0.20965964 0.14670375 -0.116375715 0.2954095 0.0782624 -0.11002258 -0.012831534 0.013986655 -0.1733585 -0.10878919 -0.05724895 -0.106862746 -0.07222975 0.015198693 -0.10449573 -0.016947525 -0.15018192 0.09378176 0.14283098 -0.07427325 0.032819003 -0.010324479 -0.04736487 -0.018588059 0.077490605 0.0303748 0.037982218 -0.08075665 0.0362189 0.07548039 -0.15445031 -0.14412402 -0.092769444 -0.06572673
的 0.11912518 -0.2372742 -0.14816009 -0.0371165 0.04128667 -0.18952379 -0.15622793 -0.22691819 0.05662454 0.05878099 0.0020214915 0.106521346 -0.04943748 -0.15012744 -0.25996682 -0.021364303 0.040703297 -0.09230228 -0.030132845 0.1901257 0.047301944 0.19129655 0.082360856 -0.115628265 0.34896263 -0.008004443 0.1993608 -0.081895754 -0.055455625 0.0365336 -0.011322153 -0.03243044 0.08150194 0.32584652 0.00727862 -0.25394094 0.16531773 0.00092119497 -0.0463814 -0.1350766 0.18412377 -0.0008658818 -0.06339895 0.10412981 0.026793245 -0.14385557 -0.06327022 -0.01743114 -0.021330371 -0.15458025 0.23535833 0.052095313 0.13107054 0.08515828 0.023253629 -0.113843344 0.108922295 -0.01465562 -0.018733336 -0.05626041 0.083189555 0.052464955 -0.07154579 0.010337995 0.1017558 -0.115753725 -0.10989266 0.06483791 -0.26854435 -0.028664881 0.11553389 0.03302143 0.21415684 -0.119830094 -0.090279706 0.10232628 -0.033395138 0.14831673 -0.119978994 -0.03526163 -0.27786753 0.20246062 0.15699778 0.1050896 -0.22898836 0.08728907 0.019423995 0.11296379 -0.00857807 0.16532825 -0.11709143 0.35863295 -0.15108716 0.0072764116 0.00092791195 0.069190264 -0.17272703 -0.01272367 0.017399766 -0.053131368 -0.05301637 0.073004745 0.019829733 0.05436647 -0.22267564 -0.19214413 -0.19548316 0.05510058 -0.20228705 -0.026306974 0.035090894 0.20730169 -0.07350757 -0.006685522 0.07514646 -0.03674833 -0.35792112 -0.067023724 -0.0053695943 -0.028746692 0.2979043 -0.1333636 -0.08583331 -0.043470517 -0.08230883 -0.0959582 0.047319967 0.05595879
。 0.035883673 -0.23445757 -0.007830261 -0.20678072 0.4706227 0.13919325 -0.04172789 -0.056563742 -0.13155721 0.031100605 0.14779857 0.079929695 -0.000745661 -0.22626325 -0.049826093 0.07066425 0.016439708 -0.100010686 -0.068659216 -0.088974915 -0.15064684 0.18133512 -0.053917516 -0.07566744 0.15659928 0.13742247 0.35236594 0.0432446 0.12585695 -0.034785777 -0.10069332 0.020245228 0.25722405 -0.064556025 -0.037539475 -0.27646303 -0.15128584 -0.16515467 -0.045443587 -0.03753106 0.14957134 0.15113848 0.016106017 -0.071974784 0.15994558 -0.0987481 0.0049979533 0.050579417 -0.17688356 0.27431175 0.10432448 -0.07525802 0.0016333275 0.08616115 -0.010600653 -0.36823204 0.0063798213 0.070769474 -0.08089923 0.04792059 0.26471007 0.011319263 0.056819078 -0.13152444 0.09083643 0.0978223 0.104579635 0.12465124 -0.27740973 -0.08642721 0.10619846 -0.08532124 0.43000636 -0.119484775 0.010690362 0.042650048 -0.040487885 0.066272736 0.041202705 -0.15187724 0.057771575 0.23142341 0.07747549 -0.099124536 -0.3046808 0.20277148 0.08291289 0.16416734 0.1279367 0.38711238 -0.19821784 0.25048432 -0.028925734 0.1502551 0.06755631 0.079094104 -0.043943953 0.14323382 -0.049611066 -0.05068853 0.079680964 -0.005697516 -0.18758735 0.05589594 -0.15844676 0.0060929894 -0.14029339 -0.09599567 0.041807868 -0.089194246 -0.29711026 -0.06090947 0.031954948 -0.010274118 0.05836451 -0.13850898 0.03682768 0.046179596 0.12392575 0.010098161 0.10847981 -0.09278181 0.19860624 0.01460685 -0.03866781 -0.19411203 0.048432283 0.0064907987
是 -0.077246234 -0.3237608 -0.15241463 -0.3104924 0.17315032 0.08496229 -0.026742507 -0.09431365 0.055321902 0.110934846 0.1904951 0.1966299 0.09531203 -0.051510386 -0.07780562 -0.081835784 0.103454255 0.021823902 0.06289927 -0.121769436 0.02285825 0.15324993 0.23823184 0.008581705 0.34159613 0.11082708 0.23265289 -0.05742209 -0.081413336 -0.01982577 0.097981736 -0.096477985 -0.0187524 0.2630842 -0.14528851 -0.3635922 0.012992321 0.16961917 -0.0797959 0.037147216 0.24586567 0.20223916 0.04737584 0.10475947 0.17823046 -0.088851266 0.07969027 -0.11160213 0.015309017 0.059952967 0.21842463 0.09099059 -0.0057421117 -0.104446135 0.20569406 -0.10187599 -0.016465865 -0.025066013 0.12127571 0.071905665 -0.0068235933 0.12253922 -0.09341761 0.09153661 -0.03849156 0.08438706 -0.24623671 -0.027400447 -0.29163298 0.0540079 0.18522413 -0.24512163 0.17298996 -0.30051944 -0.04211808 -0.14112161 -0.14114329 -0.06649361 -0.27602324 0.0700239 0.022934236 0.03462295 -0.006275138 -0.0139540685 -0.118515566 0.102226585 0.058139525 0.2929176 -0.013467974 0.21703786 -0.22096635 0.35963503 -0.031070815 -0.07352902 0.2894825 0.17355573 -0.05954685 0.11935932 -0.09626928 -0.054058846 0.02203333 -0.026543912 0.09933358 0.03249497 0.033785027 -0.04029 -0.21962146 0.008416015 0.01487417 -0.014103218 0.14755905 0.18268593 0.18408842 0.13529295 0.04428175 -0.1333304 -0.28777003 0.173702 -0.029210385 0.15654108 0.13092732 -0.13712189 -0.021549663 0.061422132 -0.2330091 -0.07328101 -0.27144152 -0.065321155
不 0.13584492 -0.16128892 -0.4341491 0.055454545 0.15652508 0.4142701 0.20986743 -0.22181262 0.22115883 0.1133345 -0.009796767 0.19149251 0.0071003586 -0.18807903 0.20767094 -0.117410995 -0.19863549 -0.14910729 0.0054640872 0.028725566 -0.03587504 0.15707998 0.07424296 -0.25369307 0.1300384 -0.2629846 0.3816121 -0.09095786 0.09830197 0.09472965 -0.1357149 0.088037215 0.27526927 0.23161934 -0.005530607 -0.011917908 -0.025346566 0.013923697 -0.06262075 -0.19094887 0.17186502 -0.1188265 0.105646215 -0.10939046 0.15848015 -0.023175728 0.22518697 0.22962756 0.11665911 -0.008956923 0.13050699 -0.13487917 -0.18267865 -0.3729322 0.14173464 -0.19752473 0.027970936 0.035688862 -0.11089222 0.103858605 -0.043032344 0.038017895 0.04252195 0.14392559 -0.20353156 0.0072554536 -0.22253427 0.09473177 -0.17838274 0.16474918 0.3469757 -0.12263385 0.07472744 -0.15951073 0.019740693 0.21649703 -0.2973426 0.12181839 -0.08540518 -0.027593436 -0.3491122 0.2800208 0.15136954 -0.08619267 -0.14390568 0.22352083 -0.06553415 0.054168247 -0.15654664 0.5142664 -0.08313343 0.16981393 -0.1647374 -0.040002715 0.19391583 0.26840964 -0.16690831 0.25391862 -0.03679039 0.09570496 0.08042586 0.10421528 -0.226289 -0.16983227 -0.02160288 -0.29018813 -0.15533333 -0.26265153 -0.048554312 -0.11437496 -0.21675798 -0.16549994 0.09858441 0.027307829 0.058682308 -0.16587175 0.08304917 -0.067664884 -0.047913324 0.46326873 -0.017220313 -0.013264608 -0.31494987 0.009097454 0.086990006 0.009366718 -0.21945766 0.10109333
了 0.062035237 -0.28625485 -0.10213574 -0.09446581 0.19926658 0.10280157 0.1267666 -0.072997995 -0.0024169676 0.31137213 0.17057282 0.2895609 -0.16824852 0.02612377 0.13400672 0.15043864 -0.1144741 -0.27591228 -0.03983781 0.107870005 -0.13022862 0.2683185 0.045213778 0.006479565 0.11640862 -0.08944148 0.3560383 -0.0017898268 -0.055519417 -0.068291195 -0.32504448 0.07461608 0.02779314 -0.04167678 0.063152194 0.0769443 0.0784382 0.03595486 -0.2612424 0.033424214 0.20951183 0.25064903 -0.1315904 0.06661515 0.08035149 -0.09569096 0.12342108 0.17843746 -0.22198883 -0.049402915 0.12772895 -0.106140316 -0.09656962 0.1408777 -0.10008087 -0.09366853 -0.17023918 -0.0892097 -0.038098335 -0.068725705 0.4016899 0.028605444 0.06921694 -0.17207156 0.11332854 -0.1485044 0.07515456 0.22065821 -0.23721854 -0.07788079 0.16099587 0.0594944 0.16806525 -0.13535531 -0.08027743 0.06543008 -0.44677505 0.07395428 0.034433015 -0.16066928 -0.22131132 -0.11485683 0.1141758 -0.087145865 -0.06319649 0.1407662 0.15583017 -0.101609536 0.02547775 0.13913046 -0.14264451 0.0815968 -0.0044916854 0.16951728 0.20137195 0.09027877 -0.26956582 -0.022063468 0.10240028 0.19494149 0.14180316 -0.17507605 0.024426822 0.03278382 -0.089751706 0.016092742 -0.43842098 -0.28919607 -0.08359344 -0.09147321 -0.1293293 -0.041702177 -0.18111649 0.036982466 0.28852612 -0.11259424 -0.028599046 0.14876768 -0.22925891 0.1538086 0.17530285 0.012793091 0.13677205 0.2529956 0.030573387 -0.016140977 -0.011556142 0.074563704
车 -0.14673899 -0.09376296 -0.3780873 -0.10321484 0.09430716 -0.06724058 -0.17105527 0.3099792 0.027414909 0.084444664 -0.10052442 -0.1911713 -0.071103156 -0.16955824 0.038302135 -0.09716066 -0.039400008 0.0751167 -0.11057167 0.07674863 -0.3353409 0.25980294 0.04824497 -0.0235014 -0.04047443 -0.3061301 0.29462114 -0.1138642 -0.067631744 0.026710832 0.10149498 -0.065416254 0.10553479 0.015335072 0.053834025 -0.14193162 0.22840053 -0.37498602 -0.062209107 0.23647909 0.18361703 0.14768422 -0.06845567 0.4376362 0.1569563 0.02256508 0.33081576 -0.13625072 -0.009847234 -0.2887978 -0.029048592 -0.0343252 -0.24491276 0.07266159 0.21344812 -0.28541985 0.038272556 -0.38126305 0.03785462 -0.14715932 0.22978458 -0.12001425 -0.026786413 0.15255482 0.03654283 -0.04556763 -0.55738723 -0.14587328 -0.35685048 0.09479203 -0.080497086 0.13051458 0.13481364 -0.15906563 -0.3444114 -0.21100155 -0.22366223 0.038708016 -0.09940133 0.118420355 -0.11301975 0.18092874 0.08204129 -0.096480966 0.14514689 0.19885431 0.47091815 0.09529497 0.28852677 0.3391039 0.059679043 0.15512799 0.0008724327 -0.26462466 -0.004933881 0.2602572 0.015243614 0.127863 0.21928531 -0.059112202 -0.22811654 -0.008402566 -0.13144563 0.025267858 -0.10960366 -0.18671067 -0.021066396 -0.026020886 0.29708734 -0.42287922 -0.047188416 0.4294006 -0.09429817 0.09817897 -0.27782688 -0.003997924 -0.06270498 0.18848494 -0.27456313 -0.17465998 0.25826433 0.1472092 -0.20520279 -0.082565725 -0.28365862 0.019624742 0.025719909 0.20194402
0 -0.40512487 -0.12305796 -0.036548227 -0.042387333 0.16333333 -0.07187754 -0.082533605 0.010279856 0.2850492 -0.10644583 0.22582713 0.37135923 0.2021918 -0.17706156 0.35695606 0.40895134 -0.04681497 0.5279102 -0.25582752 0.13751484 0.00012232861 0.29997012 -0.1630734 0.18858221 0.15731601 0.18085036 -0.14124201 0.06345598 0.2030383 -0.34854326 0.13528416 -0.06982535 0.18198909 -0.11180233 -0.16468614 -0.15165289 0.41086316 0.19404288 -0.13107131 -0.31986895 0.11739906 0.30669147 0.2110132 -0.046941318 0.2902364 -0.1296045 -0.21317956 -0.017588684 0.26477602 -0.33741543 -0.019184373 -0.031015957 0.33219805 0.38172513 -0.094754614 -0.09003567 -0.08337816 -0.5789957 -0.52095187 -0.061340764 0.39997214 0.08986529 0.01499144 0.06947313 -0.013045696 0.048029765 0.17468435 -0.40943906 -0.603007 -0.084561326 0.6702854 -0.17436403 -0.11468537 -0.014722074 0.24639833 0.44847277 -0.4074726 -0.001344211 0.16910562 -0.16759032 -0.09047245 0.27997008 0.057087716 0.11649205 -0.10684009 0.19181637 0.14850625 0.053845234 0.05503195 0.22054657 -0.045484465 0.078580044 0.15368724 0.08045176 -0.17876723 0.17110659 0.15946956 0.45014322 0.0096288 0.26299357 -0.022655275 0.039341565 -0.02959024 0.2071943 -0.15425539 -0.32048237 -0.57889616 -0.12105297 -0.35240707 0.039202444 0.057194237 -0.41540924 -0.023810342 0.2776422 -0.13957015 0.18227932 0.06960659 -0.11004184 -0.28809482 -0.25416026 0.08224046 0.0080595 0.12319206 0.3463204 -0.4813146 -0.18203487 -0.023612555 -0.09440456
一 -0.009515443 -0.5777814 0.0052503864 -0.39888722 0.15201418 -0.053020027 0.009648213 -0.13395016 -0.19773182 0.23146999 0.17996044 0.121912085 -0.35842413 -0.1814787 0.021951621 0.12399994 0.020604977 -0.18204762 -0.23191285 -0.10803833 -0.16114832 -0.007445725 0.1254469 0.080220245 -0.2816011 0.06084025 0.22529927 -0.039814666 0.22331439 0.18467416 0.044642266 0.13138363 0.34845 0.12725347 -0.11937901 -0.18314657 -0.18944164 -0.3627996 -0.19113295 0.1161606 -0.062469993 0.6836538 0.055150125 0.0013511447 0.06466231 -0.11149933 0.21814899 -0.0052682804 0.10947696 -0.03506475 0.11077149 -0.065113895 0.15529202 0.33271545 0.20531482 0.02593995 0.2468732 -0.115304366 0.16416283 -0.019175913 0.09880709 -0.18090022 0.27631986 -0.08956737 -0.056256685 -0.15271075 -0.007825899 0.14400734 -0.30411103 0.15737969 0.1882438 0.14397043 -0.2017739 0.1020036 0.03810963 -0.12689932 -0.3456745 -0.107765354 0.33271632 -0.11836503 0.03724319 -0.07104139 0.41988766 0.08926162 0.05938546 -0.097050965 0.03770201 0.42538545 0.17923664 -0.02170731 -0.027198976 0.36131707 -0.26727542 -0.037792865 0.3486875 -0.19655602 -0.23199742 0.32235366 0.2719992 -0.012673771 -0.14728773 0.18955316 0.160878 0.05845118 0.07218457 0.13910076 -0.0026305402 -0.26271832 -0.33950624 -0.2013248 0.07708379 0.14001511 -0.14372268 0.20302676 0.26330334 0.2930611 -0.008584135 -0.031837016 -0.1212125 0.14079846 -0.023809131 -0.030818174 -0.02290929 0.078907564 -0.09866253 0.07849436 -0.25646213 0.437599
有 0.04166389 -0.100192085 -0.15470758 -0.1727288 0.37217247 0.22799397 -0.15418988 -0.20423724 -0.036837537 0.13285407 0.078816466 -0.04532108 0.08017193 -0.18901439 -0.037058365 -0.3279602 0.34449485 -0.032177206 0.075399905 -0.19529685 -0.02610738 0.49271128 0.16999108 0.0762081 -0.04464587 -0.122623265 0.2907959 0.027721612 0.24175279 -0.15615979 0.2263927 -0.029318385 0.070764855 0.297091 -0.26245463 -0.20549731 0.25488427 0.32788724 0.019729711 0.13716748 0.23930417 0.20851696 0.17067932 0.22001824 -0.11528966 -0.016800633 0.2945439 -0.18144098 0.08411536 -0.04027055 0.099908166 0.03761923 0.15187395 0.032269932 0.17838773 -0.39590573 0.21391661 -0.10871452 -0.14743136 0.009667221 -0.0146144405 0.09898013 0.09072749 -0.12351571 0.034071483 0.03421011 0.025566606 0.08841927 -0.095330544 0.07287678 -0.05656736 -0.0253609 -0.0067593576 0.01855155 0.16708845 0.10981639 -0.3295734 0.10221442 -0.13702914 -0.21982996 0.024438607 0.19367178 -0.15321702 0.2568211 -0.31257948 0.10750628 0.3510219 0.109404385 -0.030099874 -0.004847327 -0.32028118 0.19490124 -0.1970044 -0.1814792 0.27045712 0.13732415 -0.041967798 -0.1985248 0.13303286 0.03426146 -0.28014186 -0.2092816 -0.026384804 -0.024488911 0.092521414 0.33060172 -0.2626279 0.1028174 -0.19628558 -0.12289351 0.01664343 0.24349092 -0.087748244 -0.046648383 -0.11167531 -0.19306028 -0.009576608 -0.085017055 -0.1898457 0.22074932 -0.08576466 -0.012819893 -0.14415012 0.05400946 -0.112724 -0.09797791 -0.23729347 0.005951491
油 -0.06075701 -0.28257647 -0.12076444 -0.12689558 -0.02369452 -0.15962833 -0.15786211 -0.12807614 -0.33305478 0.19531675 0.17591873 0.5038412 0.18014501 -0.12803249 -0.2938834 0.3009996 -0.030401936 -0.36472344 0.19240937 -0.28865215 -0.09815867 0.1345642 -0.1959244 -0.27798265 -0.10008955 0.4617395 0.06267265 0.19507761 0.07374899 -0.07652498 0.011107556 -0.46478647 0.002770627 -0.19905727 -0.0034969726 -0.0772595 0.003814673 0.0745736 -0.20291479 -0.039155755 0.24381922 0.121582635 0.29634872 -0.30745694 -0.0077701006 -0.111401625 0.15314153 0.1297963 -0.1933677 -0.25922754 -0.019901374 0.21624015 -0.17498776 -0.24254316 0.08438001 -0.2110467 -0.20563306 -0.45925623 -0.04781397 0.20147768 -0.064831644 0.0011127563 -0.32364148 0.11780993 0.3532794 0.26623347 -0.04943885 -0.09322195 0.10372246 -0.18320192 0.103302106 -0.05698552 -0.40941206 0.2711478 0.39088035 -0.033842653 -0.39979494 -0.18435581 -0.15543579 -0.4014719 -0.051885862 0.27741143 -0.064072974 -0.12364877 -0.21177095 0.013060495 0.23239787 0.0743372 -0.037821937 0.33111832 -0.17430142 0.2630137 -0.10470533 -0.05441106 0.11786979 0.23392116 -0.02350141 0.41793406 -0.021287503 -0.12185863 -0.03857422 0.08417263 0.017218553 -0.17441554 -0.44308642 -0.30881286 0.018938838 -0.36625892 -0.36767793 -0.4335626 0.19705558 0.32485494 -0.28382427 -0.032557715 0.11562728 -0.3069017 0.19535415 -0.5152609 -0.7742781 -0.19689213 0.18508041 -0.30010077 -0.34073967 0.4884727 -0.07295692 0.09321258 -0.3015674 0.26803866
2 -0.29785755 -0.19134364 -0.09254606 0.13283361 0.23680113 -0.15593539 -0.20327012 -0.04882149 0.19901446 0.0077222846 0.2058571 0.47663125 -0.18384643 -0.061999183 0.49153215 0.2573353 -0.24435878 0.30343944 -0.22435774 0.14319882 0.18162104 0.33396178 -0.15103899 -0.10022951 0.037870903 0.29838374 -0.07457449 0.01444022 0.02826693 -0.21008797 0.28585058 0.23738934 0.034713738 0.22699627 -0.13329284 -0.006657031 0.47929654 0.1903527 -0.001944663 -0.11115871 0.24670455 0.22381923 -0.006295322 0.022463603 0.15675394 -0.10782248 0.02326728 0.06568149 0.2931666 -0.3302055 0.12217097 0.0073154764 0.20031634 0.3351492 -0.047936223 0.027363298 -0.27046457 -0.24742775 -0.44178864 -0.21383724 0.50425994 0.021875182 0.122013465 0.38610113 -0.040742453 0.03322561 -0.042976603 -0.1242384 -0.30027875 -0.16008966 0.49851406 -0.20016111 0.0037313057 0.12261443 0.12485229 0.117840886 -0.277297 -0.2401033 0.32128435 -0.04419714 -0.08464879 0.21800083 0.11703597 0.061042257 -0.026570067 0.29208568 -0.03620996 0.18566607 -0.10684165 0.2768734 -0.2801023 0.22129637 0.21880656 -0.080991015 -0.10351832 0.266227 0.28863126 0.25797948 -0.3192766 0.20183708 -0.2666879 0.118415035 -0.10930039 0.12957014 -0.13403597 -0.097839646 -0.34323823 0.057702437 -0.3670068 -0.07412154 0.17287754 -0.063886605 -0.11299302 0.13250642 -0.26711333 -0.12210628 -0.02775948 -0.04027868 0.10268232 -0.29190868 0.13194987 0.20964628 -0.08203876 0.29127 -0.19552185 0.014957296 -0.21974237 -0.03088699
我 -0.014028213 -0.21465923 0.066864006 -0.06955192 0.1413971 0.06289272 -0.14450778 -0.2603812 -0.111320704 0.1525326 -0.14631061 0.07433257 -0.25286895 -0.01523516 0.34426716 -0.043754574 -0.1265959 -0.26415405 0.06489018 0.018251557 0.14358701 0.2337907 -0.017621763 -0.022004263 0.30129772 0.19601966 0.28977644 0.10437703 -0.054961354 0.20038222 -0.45154023 0.0026495447 -0.07065049 0.14384714 0.16243477 -0.027215578 -0.09807944 -0.022089114 0.08876975 0.019885397 0.17605111 0.18962242 0.13015299 0.2849144 0.2881852 0.06451752 0.29038998 0.22464338 0.0044421307 0.14900184 0.20010747 -0.23274335 0.19794275 -0.14969552 0.19003657 0.09644233 -0.14693752 0.071047746 -0.5631176 -0.049568404 0.13224043 0.11554144 -0.07453555 0.11608645 0.17542872 0.2155121 -0.20260926 -0.019874763 -0.33227482 -0.19194242 0.110715955 0.0019577772 0.36266232 -0.15338682 0.118217595 -0.051832177 -0.6016492 0.03214073 -0.01346665 -0.21077949 0.19132811 0.13834198 0.10243627 0.042929325 0.0090450775 0.30637622 0.28142363 0.29946643 -0.08848529 0.23295671 -0.15470724 0.12192465 0.12790766 -0.15440173 0.02631298 0.32989883 0.22072054 0.07527212 -0.07088827 -0.17549561 -0.024497801 -0.11265136 0.2963305 0.030881379 0.20409022 -0.25899744 -0.20180851 -0.038065992 -0.033388454 -0.25795305 -0.14744495 -0.20471543 0.11898905 0.032571692 0.20681386 0.13245374 0.23390397 -0.22617115 0.2318712 0.007876683 -0.063481554 -0.053777937 -0.2745802 -0.013107538 -0.27611917 0.12671445 -0.10305274 0.25753194
. -0.34179807 -0.022477204 -0.013156496 -0.12607211 0.06966341 -0.17818893 -0.18574943 -0.3340883 0.14923479 0.0537329 0.29832417 0.50414664 -0.06405174 -0.21598774 0.40499163 0.33650798 -0.20557886 0.26323932 -0.46807683 0.25211298 0.10905879 0.3843493 -0.022833042 -0.061050154 -0.06320216 0.178936 0.11158065 0.12326213 -0.11100566 -0.28719324 0.25399488 -0.028739577 0.052948024 0.29198527 -0.18984032 -0.060767997 0.10298971 -0.12065064 0.082155585 -0.2783717 0.23583364 0.28676462 -0.16718934 0.046638366 0.10993599 0.0805727 -0.1612725 0.20017053 0.31585154 -0.25213468 0.08287644 0.13000453 0.15958798 0.37005737 -0.17048985 -0.10348403 -0.17483492 -0.31450346 -0.49877343 -0.31599316 0.23803107 0.1428722 -0.09678056 0.49629378 0.20886135 0.16760042 0.004199896 -0.055398956 -0.39403954 -0.18157776 0.34996265 -0.07379265 0.16051729 0.16695194 0.08938193 0.16557713 -0.34936437 -0.35968915 0.21307494 -0.14475457 0.029722234 0.23327379 0.15020339 0.27955338 0.008554736 0.17329031 -0.085188836 0.086519025 -0.4148587 0.42861456 -0.30387044 0.38618776 0.20797499 -0.020599758 0.015447951 0.26022184 0.4962846 0.3064769 -0.29354268 -0.03846331 -0.1523758 0.12650235 0.019454323 0.08302366 -0.17309307 -0.22222905 -0.48628354 0.19153623 -0.323214 -0.15094084 0.08697037 -0.11555401 -0.03298846 0.2517662 -0.42497188 -0.050311748 -0.24807255 -0.071251474 -0.1017086 -0.20669845 0.25412276 0.038841058 -0.0850342 0.3310546 -0.14376956 0.05061188 -0.10943507 0.19396383
动 -0.16480252 -0.44421944 -0.26696032 -0.07209632 0.17098671 -0.120992474 -0.046858348 -0.32173067 -0.10478815 -0.11400971 0.16279979 0.29684398 0.21739869 -0.11906422 0.32028356 0.19103263 0.036887348 -0.32362112 0.028922303 -0.13964134 -0.3773251 -0.06230153 0.17573763 0.19762386 -0.46407643 -0.41417462 -0.27071393 -0.0053846166 -0.488191 0.24485321 0.10052035 0.2344512 0.11498572 0.11249982 -0.4327551 -0.04859078 0.28487796 0.12514623 0.3120479 -0.41789025 -0.050867435 -0.28585887 0.11486369 -0.0038866058 0.33308098 -0.2337781 0.4571511 0.16311435 0.30109844 0.03515016 0.54401034 -0.16860484 0.10277243 0.09410713 0.40003556 0.0035128114 -0.12715474 -0.24481508 -0.13372684 -0.17436524 0.029704036 0.112930104 0.091729835 0.21308273 0.45962137 -0.08480116 0.30285102 0.10559642 -0.3417585 0.18625244 0.083768316 -0.06339299 -0.13678792 0.016149104 0.07961682 0.15572564 -0.32627 -0.06931281 -0.31634125 -0.1491291 -0.28863353 -0.21491888 0.0538686 -0.3653603 -0.094816916 0.17191508 0.100060955 -0.22478959 0.1722392 0.3769221 -0.12359621 0.23365673 -0.41338602 -0.3146094 0.602854 0.31559592 -0.04049802 0.10896428 -0.30380878 0.114806086 -0.03725753 -0.11763997 -0.111280486 0.15386848 -0.33525357 0.021367557 -0.120979875 0.095320426 -0.33223563 -0.5204375 0.49015465 0.11133009 -0.066298574 -0.08561773 -0.09880975 -0.17335156 -0.26725763 -0.0012315903 -0.04928138 -0.122737356 0.011983964 -0.05342414 -0.13990964 0.1384805 -0.008175911 -0.22399352 -0.13497578 -0.0011042984
就 0.14617164 -0.19370872 -0.31474438 0.021324942 0.32351536 -0.057156116 -0.014003915 0.0019041165 0.09728105 -0.060782142 -0.061190303 -0.066035755 -0.049442936 -0.23490849 0.039149888 0.13048215 0.102394395 -0.27640268 -0.044194 0.09892975 0.009659161 0.24398202 0.10308437 -0.13532978 -0.112579145 0.1055988 0.22977722 0.088248484 0.100157574 0.04964942 -0.004180427 0.26272848 -0.054009203 -0.057072595 0.08397369 -0.069984026 0.018248826 -0.16304086 0.09728412 -0.24861637 0.14800961 0.21300532 -0.13898742 0.12507503 0.09884004 -0.02869098 0.02404629 0.08740091 0.09075286 -0.09087797 0.07866756 -0.26024666 0.001794378 -0.04360118 0.021951567 -0.20216401 -0.028810827 -0.047790438 0.14688629 0.13386033 0.2258717 0.18255422 0.16588938 0.18441664 -0.061351035 -0.4127825 -0.15723197 0.15814911 -0.3302738 -0.04970761 0.079145506 -0.135873 0.2739979 -0.096778475 0.22363666 0.19736367 -0.030375624 -0.13789287 -0.1427657 -0.17938377 -0.20172311 0.18058085 0.14280614 0.028169401 0.19891542 0.110582575 0.06632457 0.04264819 -0.07371781 0.24087058 -0.028161885 0.23448977 -0.1485212 0.02384803 0.07212697 0.24651523 -0.20875624 0.28984213 -0.056350727 -0.039938346 -0.0074066552 0.1013219 0.03909181 0.16212517 -0.11434184 -0.21848425 -0.2232849 -0.23568565 -0.24147597 -0.061533097 -0.38974524 0.0031813823 -0.13442788 0.015523617 0.05339447 0.11360667 0.049463622 -0.07924606 0.08401358 0.025825517 -0.0012714706 0.09789594 -0.22122021 0.0823716 0.025003944 0.080774814 -0.21571864 -0.057928015
机 0.15388307 -0.35806173 -0.13173917 0.11103702 0.0029694042 -0.008586708 0.023321807 -0.35785806 -0.24740635 -0.07010941 0.18236119 0.16126132 0.4580163 0.012850787 -0.08698306 0.3830762 0.06840258 -0.2957576 -0.014703614 -0.001443969 -0.1485045 0.28780347 0.42428902 -0.14180268 -0.0660978 0.050871093 -0.4192678 0.06701071 0.056239597 0.23839128 -0.038242407 0.49535415 -0.0972434 -0.19118093 -0.35181734 -0.22831118 0.015558953 0.01069961 -0.11757944 -0.07134602 0.27401906 0.5505784 0.50781554 0.11125295 0.33144 -0.26773298 0.1700372 0.057225373 -0.037801955 -0.08953358 0.17518672 -0.2571093 0.2588576 -0.43072775 0.76629716 -0.14353956 0.22240925 -0.14022104 0.057446454 -0.10894017 -0.007034564 0.1970759 0.04776687 0.2767588 0.15589492 -0.15837573 0.33030418 -0.15273935 -0.46736065 -0.12719089 -0.2707242 -0.21809642 -0.20164765 0.48363757 0.2740877 0.025662092 -0.0010705356 0.14897008 -0.37927538 -0.48662165 -0.09926699 0.28481165 0.47719777 -0.23066379 -0.10538151 0.10151234 -0.21091357 0.035741106 -0.04812129 0.33053905 -0.08249558 -0.28251237 -0.20225963 0.14374916 -0.25108635 0.36178884 0.14796743 0.104577914 -0.13426831 0.22331098 -0.33244368 -0.3314938 -0.008530492 -0.1888414 -0.07035913 -0.41013122 -0.4316676 0.1269523 -0.14942566 -0.38817775 -0.018676646 0.008775866 -0.34930196 -0.15459733 0.04436258 -0.33375314 -0.1543385 0.43625125 -0.35645562 -0.2776032 0.36913666 0.02813581 -0.19418713 -0.12206959 -0.1445729 -0.34938735 -0.1972625 0.03909749
个 0.24367501 -0.16495225 -0.06728521 -0.07190268 0.33004442 0.044178355 -0.24804205 -0.12009689 0.17508602 0.12095372 -0.041214198 0.2940158 -0.27078012 -0.2432818 0.28549892 0.093664914 0.35850447 -0.27080354 -0.054233216 0.1615707 -0.13228005 0.49331084 0.20071155 -0.11160761 0.1338517 -0.009929086 0.16594741 0.17895961 -0.0070857005 -0.058256768 -0.00030000543 -0.21070898 -0.19143249 0.15484962 -0.17654046 -0.30736542 0.021337023 -0.18289141 -0.017148465 0.21440479 0.20726717 0.04451761 -0.23844944 0.12279426 0.030281402 0.4192408 -0.016023776 -0.06723517 -0.020237984 -0.033395436 0.0043776333 -0.19505318 0.25711456 0.18366438 0.05735695 -0.20309477 0.13385455 -0.0019355647 -0.1526389 -0.3096568 0.118389815 0.109784186 0.041766826 -0.25095245 0.23444158 0.042205792 -0.22840069 0.04621439 -0.046863757 -0.08962526 0.0004602752 0.03078689 0.036632363 -0.03791574 -0.26955926 -0.093898974 0.04552939 0.07019794 0.115457155 -0.46601522 -0.11407512 0.13700865 -0.09003578 -0.06280549 0.14696762 0.41456315 0.013553987 0.061577283 -0.028605914 0.35476872 0.22386718 0.20362465 -0.35941064 -0.0024688572 0.05208689 0.15378922 0.05336034 0.3952963 0.3372129 -0.3407242 0.002467089 -0.016148362 0.24099374 0.22803523 0.0021163775 0.03069203 -0.3367437 0.06997658 -0.23844473 0.06255051 0.06547339 0.05634297 0.072536215 -0.07798947 -0.03842223 0.06760061 -0.22830631 -0.039988786 -0.1288335 0.19251116 0.124948494 -0.22374108 -0.23691851 -0.50431144 -0.06671527 -0.2871203 -0.18721226 0.07753353
1 -0.050850973 -0.43423873 0.050053727 -0.009465956 0.096481055 -0.00064149586 -0.3246392 -0.040929954 -0.019498771 -0.103220634 0.16500068 0.42185462 -0.04288489 -0.14750497 0.17321718 0.4702663 -0.2292182 0.63824874 -0.13088404 0.25236174 0.115262575 0.31764883 -0.12048959 0.02327661 0.22191519 0.13017796 -0.05215966 0.31597346 0.094761655 -0.099815466 -0.06927716 -0.124734655 0.18588848 0.24118376 -0.13845162 -0.20731834 0.28796986 0.13757037 0.08651901 -0.26687253 0.19589545 0.2374327 0.109889545 -0.030413698 0.18474789 -0.20476183 -0.05760135 0.11283135 0.052619237 -0.46536306 0.05886781 0.015985055 0.52386385 0.37588856 -0.033251382 -0.058384895 -0.18141524 -0.43534747 -0.5887658 -0.12981214 0.46408635 0.11598748 0.049265634 0.16807298 -0.12316518 0.110923044 0.08552905 -0.4669661 -0.3282775 -0.110248 0.55728227 -0.12822264 -0.08258503 0.013238695 -0.08391636 0.22911066 -0.2459934 -0.25869966 0.25778753 -0.22866492 0.13075404 0.35235098 0.0796985 0.09088805 -0.29298595 0.19354875 0.03534616 0.16667931 -0.08738074 0.2604525 -0.031400874 0.18934773 0.11669007 0.04395643 -0.05826266 -0.015850209 0.37702754 0.12604222 0.1754625 0.18498881 -0.30806494 0.26669556 -0.06794961 0.1635235 -0.17076434 -0.33330315 -0.43141007 -0.5225402 -0.14445518 -0.0073306393 0.27212352 -0.4285421 0.0039738356 0.12001535 -0.08779676 0.26695135 0.07227601 0.05203286 -0.23064819 0.030818112 0.10714545 0.012314921 -0.17199773 0.18940063 -0.48736015 -0.013295951 -0.32331628 0.3266982
人 -0.21315476 -0.2839935 -0.43030453 -0.075180106 0.41660583 0.093611285 -0.004784134 -0.18541445 -0.20813161 0.29615128 0.09930707 -0.110751115 -0.4218022 -0.11814382 0.016796516 -0.35041574 -0.05284684 -0.1339966 -0.09175374 -0.57245046 -0.084324405 0.22796655 0.1915891 0.009174082 0.5117727 -0.23166785 0.18387218 -0.20879747 0.16489364 0.29419968 -0.18116544 0.67828655 0.026098369 0.11626873 0.051365428 -0.22171812 0.1414922 -0.18288046 0.35589084 -0.18804967 0.13098373 0.63523257 -0.020542089 0.2425856 -0.045235723 -0.113639764 0.126299 -0.1750483 0.41797167 -0.1756564 0.1814686 0.41671774 0.28040203 0.28428772 0.3631359 -0.1161229 -0.5789669 -0.0531699 -0.2270724 -0.2755877 0.1529464 0.24009067 0.17261212 0.2662806 -0.08862367 0.0964695 0.054628193 0.09115528 -0.057826508 0.122408524 0.06755806 -0.25495166 0.31378898 0.09561385 -0.3516929 0.049885266 -0.19743392 0.1183047 -0.3624575 -0.09878093 0.02260692 0.2504414 -0.18349603 0.16588077 -0.3153009 0.1929382 -0.20556526 -0.13299882 0.2580911 0.44369417 -0.2232691 -0.23191912 -0.05312059 0.03405234 -0.06100662 0.14260145 0.1091322 -0.3482358 -0.12630698 -0.36292747 0.16100898 0.022306055 0.15443487 -0.16265991 0.2658941 -0.2895202 -0.33558276 -0.1566018 -0.13993001 -0.63811564 0.0776931 -0.15589178 -0.2027062 0.075788885 0.1832255 0.12610188 0.07243897 0.0013477231 0.31128052 0.07483997 0.3359953 -0.16066355 -0.4029624 0.16695145 -0.043082323 -0.040530693 -0.18939713 0.024799006
好 -0.16903478 -0.17025046 -0.1007415 -0.2086308 0.24235968 0.15962808 0.15334482 0.028003134 0.06614627 -0.13964944 0.14139317 -0.23633584 -0.08336397 -0.09358534 -0.1860566 0.06806115 0.26742572 -0.16851592 -0.010176421 -0.3220034 -0.064062536 0.2557601 0.03677991 0.2574208 -0.0004264453 0.046400484 0.29385656 0.2484634 -0.06861754 0.06518325 -0.2203781 0.12894039 0.13041627 0.45535508 -0.13889197 -0.30554032 -0.049367107 -0.064405724 -0.0049029896 0.08070918 0.39654416 0.06414556 0.17104967 0.237966 0.3307161 -0.29586503 -0.20336697 0.059495106 0.120322645 -0.3157741 -0.028676974 0.112438545 -0.16114599 0.31724486 -0.016553206 0.36091933 0.3252433 0.24197617 -0.07411513 0.18403365 -0.02552378 0.34456965 -0.17306773 -0.35753167 -0.066616766 0.045627218 -0.098870695 0.010266054 -0.017978385 0.16277264 -0.032066647 0.100267604 0.5101943 -0.047241714 -0.0770802 -0.023521546 -0.26515627 0.06843988 -0.030910904 0.007839426 0.083923705 -0.05825216 0.16907164 -0.21609093 0.0046725087 0.22601326 -0.015280292 0.07346895 -0.12683125 0.35498103 0.0011451952 0.43708697 -0.2535124 0.2364589 0.027070545 0.34151426 0.15899655 -0.038881287 0.103136696 0.21680105 -0.12855624 -0.11888563 0.021864155 -0.09775328 0.17564003 -0.13701054 -0.45520115 -0.09194575 -0.15467769 -0.13403267 0.085116 0.16223784 0.039178055 0.14758787 -0.41083476 -0.09443286 -0.18259327 -0.15378551 0.114771016 0.2304388 0.18293352 -0.20986155 0.00041980896 -0.038183253 -0.13927583 -0.27636537 -0.097413495 0.09667857
5 -0.2039867 -0.24569508 -0.19852392 -0.07901446 0.2964484 -0.12700523 -0.37845692 -0.18291332 0.14775634 0.023261582 0.17375213 0.6487626 0.037561838 -0.037040435 0.33703637 0.2526151 -0.16147695 0.21191734 -0.45530155 0.25237137 -0.05263705 0.16631424 -0.050573763 -0.04878335 -0.11118566 0.2910654 -0.17397529 0.2597179 0.06922938 -0.19910744 0.11589591 0.20780662 -0.12649605 0.103697024 -0.24204399 0.016896382 0.2516218 0.10509415 -0.19193503 -0.32360253 0.3572881 0.29799685 0.34739834 -0.12423016 0.2141279 -0.18219851 -0.21440712 0.07225971 0.38490194 -0.12627503 -0.07976967 0.1416456 0.13466446 0.4180829 -0.12641305 0.16232003 -0.2956915 -0.46423444 -0.66119456 -0.14538433 0.17154774 0.040505223 0.1151558 0.1568929 -0.077636115 0.038684256 0.19029415 -0.37680197 -0.5124033 0.11418414 0.6620996 -0.10398211 -0.15080468 0.17211966 0.21700326 0.32141793 -0.09250635 -0.3792612 0.32102263 -0.13713357 -0.048515707 0.25022012 0.004480531 -0.0077060736 -0.44057885 0.027742641 0.026208038 0.17440721 -0.08289959 0.18412203 -0.20502993 0.31650943 0.3546342 -0.02949974 -0.0155265555 0.0038529185 0.19281423 0.39726612 -0.04527026 0.18211563 -0.28914696 0.00752844 0.30411485 -0.028727293 -0.06143403 -0.06625178 -0.25116757 0.11647129 -0.28620234 0.019610742 -0.14349993 -0.098473 -0.038609006 0.1508813 0.06589755 0.013077378 -0.24346079 -0.03981343 -0.061935995 -0.13517779 0.008481812 0.17511398 -0.0067764223 0.47420168 -0.09395337 -0.18386373 -0.15946402 0.0032058337
这 0.12297059 -0.27193323 -0.08963576 -0.2619292 0.11067317 0.22062542 -0.01020495 -0.26185882 -0.11420289 0.33418626 -0.16721344 -0.17899583 0.043493513 -0.3152033 0.022870418 0.06876429 0.17982979 -0.24442346 0.16322847 0.21611314 -0.045442156 0.46492475 0.07058211 -0.017700601 -0.020152284 0.059772633 0.39064214 -0.3137352 -0.016446393 0.5347061 -0.023654783 0.099513955 -0.06355188 0.3059546 0.070751786 -0.37805378 -0.2915924 0.026502242 -0.018128917 -0.02332161 0.26386005 0.19469707 0.04803193 0.089243226 0.07365605 0.07815409 -0.10124838 0.28638682 0.038884107 -0.18138696 -0.20069923 0.015815891 0.09379018 0.30283135 0.55442065 0.05590146 0.21957019 0.04679084 -0.12136016 0.13718107 0.04477895 0.056362953 0.036032006 0.07186287 -0.054121066 -0.083462544 0.09969176 -0.24727173 0.058308836 0.3475095 0.14863497 -0.07838086 0.1664527 -0.050144304 0.12722681 -0.011151853 -0.23553754 0.38870695 0.12310399 -0.1476558 -0.25877962 0.10198084 0.28912538 -0.100016646 -0.2659526 0.08690101 0.19737454 0.4260646 0.14449117 0.30861717 -0.024134511 0.23121057 -0.16430329 0.0031925985 -0.17289542 -0.15241009 -0.14861315 0.2125217 0.25731382 -0.033304006 -0.11822193 0.4099324 0.11517981 0.51556736 -0.027525496 0.0044764653 -0.18676428 -0.20259751 -0.22300471 0.092054024 0.047204398 0.041789312 -0.22689818 0.13058668 -0.015135275 0.024846701 0.016171955 -0.22057565 -0.06491769 0.19362606 0.084479414 -0.11462859 -0.3393065 -0.028127307 -0.081231885 -0.12943995 -0.2165145 0.5401696
没 0.046797324 -0.10165296 -0.06877573 -0.23301265 0.18072586 -0.047800895 -0.11367306 -0.2777939 -0.00018964846 0.08896748 0.17528787 -0.082041964 0.22658686 0.24194345 -0.14373873 -0.33147514 -0.026251668 -0.1302328 0.033806898 0.12970991 0.30285022 0.40371457 0.32032916 -0.21448947 -0.069337316 -0.08467474 0.738362 0.22143562 0.32626134 0.1910296 -0.34385556 -0.315796 -0.09243027 0.11183129 0.04200764 -0.16405486 0.38000393 0.23592925 -0.12081147 -0.32781297 0.40411097 0.19373155 0.027655255 -0.024421988 -0.015067481 0.050212983 -0.071395755 -0.3309591 0.3848513 -0.085061155 0.026587926 -0.21681039 0.030144496 -0.12613243 0.23778723 -0.2282215 -0.1347792 -0.1913211 -0.023663802 0.3218626 -0.103097774 0.21733001 -0.034446742 0.23848975 0.09168475 -0.165041 0.16929328 0.056821525 -0.48656914 -0.12458838 -0.10751103 0.13075714 0.28630394 -0.41913098 -0.16441964 0.025225798 -0.28180814 -0.18563624 -0.23429295 -0.044989135 0.042428467 0.4325323 0.49633253 -0.11310685 -0.14498214 0.33073914 0.3272016 -0.11379499 -0.039034687 -0.052461457 -0.19928157 0.34675083 -0.01894819 -0.41111347 0.24300371 0.13788225 -0.11943787 0.040353663 -0.14393151 -0.15643995 -0.03588353 0.04494148 0.114259355 0.21850868 -0.11579465 0.31816825 -0.4662382 -0.22395234 -0.2589647 0.047725763 0.018025178 -0.10143193 0.009212396 -0.15909396 -0.035173018 -0.3282142 0.11486446 0.13236971 0.061909344 -0.23909217 0.04521463 0.22898023 -0.17708963 -0.2332066 0.06570426 -0.023395726 -0.43061808 0.016177846
森 -0.15828192 -0.2678956 -0.21923143 -0.44550088 0.20905937 -0.14102603 -0.15952355 0.36406085 0.12867539 -0.19820182 0.24317092 -0.027236618 -0.47846702 0.20862658 -0.18754013 0.10157982 -0.18684174 -0.14259645 -0.026163587 -0.26597938 0.17623135 0.3435466 0.41573578 0.27975306 -0.025006022 0.00021491683 0.18657951 -0.12885234 -0.04933571 0.21704237 -0.23601247 0.5303324 -0.117184505 0.102248974 0.016308647 -0.1857685 0.6361433 -0.32965758 0.3281178 -0.027120728 0.16565149 0.3412338 -0.07867245 -0.04154043 0.06209026 -0.2350119 0.056662876 -0.0005450781 0.18475282 0.02570122 0.10634479 0.05775919 0.047236025 0.21033454 0.6268786 0.085881345 -0.26801303 -0.1411893 -0.418267 -0.58466464 0.099715054 -0.055456433 0.35675693 0.052782614 0.16165826 0.0580261 -0.08002644 -0.3379182 -0.2612347 0.21247393 0.1551324 -0.19854014 0.7338575 0.2854286 -0.20163997 0.13301422 0.00024992327 0.15727197 -0.17102882 0.09707637 0.20602532 0.36840782 -0.16177216 -0.10050575 -0.120013416 0.19392224 -0.23164293 -0.022666661 -0.1887443 0.5089275 0.00079682254 0.091128 -0.28628883 -0.18930618 0.38332653 0.11700892 0.36565587 -0.10831171 0.039776474 -0.38426566 0.21045135 0.005264864 0.13491109 -0.21464251 0.33425158 -0.4167801 -0.5545991 -0.038263567 -0.21100736 -0.23583378 0.11206149 0.03285943 0.03130538 -0.008568796 0.1294958 0.0785238 -0.21954551 0.042533934 -0.06739367 -0.027384408 0.31422073 -0.17768532 -0.4161721 0.22498825 -0.20669454 0.012599336 -0.16673078 -0.0019561953
也 -0.029144874 -0.243746 -0.21317793 0.015725143 0.27874374 0.30140764 -0.13901407 -0.0020042483 0.015996937 0.20616132 0.17123027 0.13085032 -0.17441058 -0.27260098 -0.033565216 0.16902216 0.059860334 -0.23467894 -0.016707763 0.052301176 0.05186555 0.12161118 0.121350355 -0.046784595 -0.13449204 0.02114765 0.26651648 0.23946291 0.03326571 0.07197791 0.16602805 0.20971356 -0.007875998 0.20809068 0.1157819 -0.10490599 0.21730785 -0.20016715 -0.022863226 -0.12996718 0.048543196 -0.031795822 -0.2532028 -0.02121944 0.35284698 0.021824058 0.055388324 0.13392535 -0.005027356 -0.00065241114 -0.032539442 -0.08010141 0.029986486 -0.084173486 -0.14692459 0.0035010276 0.05328923 0.08826716 0.21178724 0.027434679 0.104595646 0.12184768 0.035303198 0.028886668 -0.17558028 -0.32124305 0.19230168 0.0719107 -0.4073733 -0.068344414 0.22632681 -0.025934337 0.3698892 0.059427798 0.2350956 -0.078120075 -0.25985152 0.11359533 0.046074055 -0.03450246 -0.19565631 0.3228483 0.059111077 0.055286147 -0.026368987 0.23624808 0.28265822 0.12182611 0.03736053 0.22009927 -0.1830869 0.1921586 0.057601843 0.16626702 0.048132755 0.291169 0.044690806 0.09370199 -0.04779088 -0.05100456 -0.082940966 0.29193985 -0.115322314 0.033493455 -0.06365978 -0.34349903 -0.1343771 -0.11454014 -0.17618334 -0.17255308 -0.30451575 0.16017555 -0.09245943 -0.09644213 -0.09023668 -0.084206685 -0.15143079 -0.2234744 -0.0064463494 0.24722654 -0.12671639 -0.06714319 -0.2942409 0.116484545 -0.1387775 -0.19444329 -0.026462356 -0.09093859
还 0.23720346 -0.3083687 -0.41277635 0.021069104 0.05498332 -0.03755459 -0.05457057 0.19780675 -0.0027914965 -0.035384893 -0.058390416 -0.06541756 -0.13243257 -0.04986119 -0.13503043 -0.0043492815 0.24789698 -0.23142137 0.16395698 0.27072123 0.16344322 0.27266592 -0.0151210865 0.00034623317 -0.06925504 -0.108134456 0.26811045 0.22817118 0.111912906 -0.23987973 0.043362554 0.16532281 0.14602761 0.19463153 -0.004634758 -0.17480986 0.2867438 -0.3447089 -0.015756292 -0.27606738 0.11469642 0.11488033 0.042651005 0.055690803 0.14126503 0.071388036 -0.16629688 0.02649766 0.19932112 -0.14174235 -0.13833806 -0.15124601 0.011113543 -0.2285044 0.0699954 0.055133637 -0.05534029 -0.064233154 0.06883171 0.11702968 0.033465926 0.17608967 0.10889745 0.16730267 0.0007840571 -0.39598843 0.06978673 0.12064819 -0.21649966 -0.08717169 0.089824185 -0.008805924 0.3298565 0.04956992 0.04226178 0.2115342 0.077962965 -0.119504035 -0.25058576 -0.105208956 -0.45543876 0.34433717 0.15068819 0.008401129 -0.32417464 0.061210398 0.12002479 0.0783344 0.15154804 0.2491012 -0.0929069 0.21527328 -0.1824343 0.09157318 0.07918268 0.14441535 0.09281416 0.2539993 -0.19512336 0.13897078 0.13212392 0.14198767 0.08528372 -0.12979795 -0.13836479 -0.059805267 -0.07597627 -0.021573791 0.09877278 -0.21442541 -0.35146284 0.028227495 -0.0629716 -0.16685572 0.17371567 -0.02770554 -0.2202078 -0.45928138 0.023558106 -0.047385104 -0.08649529 -0.047514528 -0.4156261 0.09492118 0.002824426 -0.16302077 -0.0030503506 0.10891069
要 -0.26668978 -0.30955604 -0.14064008 -0.22671963 0.16300608 -0.059370816 0.15515876 -0.22337084 0.20108052 -0.023475857 0.06683876 0.1379597 0.082827166 -0.09881925 0.15900277 -0.1591239 0.16368349 -0.23969798 0.012705197 0.12464871 -0.397872 0.39772967 0.27207986 -0.28849995 0.060599975 -0.23244013 0.6509484 -0.17696236 -0.086093344 0.01997803 -0.15611003 -0.04993035 -0.020347187 0.186615 0.03713074 -0.053215895 0.23023337 -0.024481129 0.005847708 -0.012709409 0.36906055 0.09192659 0.3283877 0.14427868 0.26867354 0.14685638 -0.010498897 -0.09865801 0.02345719 -0.23522052 0.21244858 0.054301094 0.010472512 0.19751942 -0.21317773 0.21342933 -0.07584604 -0.123516805 -0.021384891 -0.05828959 0.23496224 0.09136928 0.285637 0.14573939 -0.14590093 -0.013051667 -0.15542658 0.21170723 -0.23083238 0.05766621 0.45619574 -0.07158429 0.30218393 -0.033449776 -0.024495745 0.351525 -0.20059608 -0.49526495 -0.16596863 0.14502981 -0.14346209 -0.07988401 -0.106332794 -0.08305941 -0.122341566 -0.41726354 0.23064615 0.23329918 -0.0045047207 0.3363152 0.019008923 -0.14112559 -0.18549229 -0.029168824 -0.056101803 0.41653022 -0.09534348 0.26776218 0.102114685 0.16211914 0.27365488 -0.21803012 0.12807557 -0.10084323 -0.20840006 -0.23673524 -0.14940982 0.26106825 -0.053977113 -0.1302415 0.14632168 0.20724931 -0.41731304 -0.48388022 -0.053533796 0.014836119 0.06772937 -0.024537444 -0.24178295 0.15034218 -0.15546782 -0.08226771 0.19396366 0.005190482 -0.035674796 -0.31462488 -0.14289922 0.38310277
多 -0.011235396 -0.2719067 -0.10096154 -0.28238618 0.4625296 0.28069496 0.07362642 -0.10913573 -0.26503855 0.19807008 0.60938066 0.14485942 -0.0020745683 -0.054637477 0.09050643 0.01603392 0.01061676 -0.20427746 0.19644143 -0.1469145 0.0989145 0.3930333 0.29980177 0.20338762 0.06888977 0.19332844 0.46635938 0.18588187 0.23266368 -0.21609259 -0.21912149 0.19415537 0.21411656 -0.16752577 -0.15949245 -0.03721141 0.04967796 0.0067282426 -0.37542966 0.015304706 0.08168793 0.1737895 0.12945896 -0.17861453 0.21664897 0.09044287 -0.07380671 0.16368611 0.1312621 0.06285647 0.21053962 -0.046486802 -0.16429321 0.13468766 -0.31840625 -0.036864515 -0.13910614 4.8324873e-05 -0.17177491 -0.22146583 0.1335029 -0.02960163 0.19627678 -0.12737347 0.010290946 -0.11060172 -0.0024212014 -0.014064426 -0.18074434 0.030176897 0.38591045 -0.21201988 -0.11006032 -0.027331213 -0.23807742 0.16794111 0.008569872 0.21872191 -0.036119096 -0.116754234 -0.32184926 0.037805792 0.13139248 0.20480317 0.26825073 -0.12909715 0.22224575 -0.19616438 0.14864512 0.40584755 -0.12405542 0.587806 0.22884528 -0.011874293 -0.3284847 -0.035270717 0.050361354 0.042914867 0.2575748 0.11749368 -0.2095488 0.19397001 -0.13058043 -0.10143569 -0.10241416 -0.12680084 -0.14872044 -0.24910125 -0.11043132 -0.30271056 -0.41242388 0.15682028 -0.02008909 0.25390562 -0.005232711 -0.09793692 0.049806632 -0.36109307 -0.28314558 -0.2974767 0.09352901 -0.07530764 0.026585167 -0.21929148 -0.30577728 0.043271028 0.11147444 -0.09736131
大 -0.08961504 -0.14246102 -0.2444176 -0.31446692 0.36819607 -0.16823016 -0.14143257 -0.14298199 -0.21695213 0.35180962 0.21207958 -0.430202 0.06243397 -0.0031743974 -0.1275135 0.073116586 0.21383713 -0.16396692 0.10111635 0.05298325 -0.022625666 0.41371647 0.4552281 0.099997245 0.20911065 0.059551287 0.46934244 0.13408308 -0.53402555 -0.5543414 0.017615033 0.3749724 0.281235 0.3041696 -0.28276286 -0.44331047 0.11977401 -0.08670652 -0.19281796 -0.14387394 0.1890007 -0.01768827 -0.06073347 -0.3169414 0.16936192 -0.35747284 -0.071404144 -0.09454393 0.21558194 -0.07238604 0.3310385 -0.05173034 0.4182643 0.16385837 0.21016414 0.18816996 -0.2239335 -0.06943841 0.03839465 0.10710228 -0.14700194 0.31624767 -0.10600361 0.11308895 -0.22633462 -0.27956125 0.083919495 -0.2209598 -0.025736732 0.11787782 -0.016323268 -0.12514877 0.05983734 0.07893232 0.16216728 0.0019000375 -0.26194814 -0.05573428 0.13582188 -0.26248503 0.2741038 0.15354283 -0.13064398 0.011197479 0.4049663 0.12920259 0.15852341 0.12033652 -0.013828538 0.14082026 -0.07699821 0.24869594 0.08814504 0.10642274 -0.060232986 -0.48353088 0.16702056 -0.34876913 -0.07097839 -0.045007393 0.14430806 -0.25912008 -0.5532039 0.23151861 -0.04165045 0.016382573 -0.319918 -0.07959417 -0.2116952 -0.36948353 -0.58182204 0.20222461 0.23832066 -0.016470138 -0.03563406 -0.011856988 0.18426436 0.01581782 -0.38854948 0.3474638 0.19512697 -0.001878232 -0.2503246 0.07305424 -0.009394497 -0.13799545 -0.26508003 0.12865885
在 0.33415377 -0.24113667 -0.10820162 -0.23887604 0.43766376 0.06897163 -0.26103947 -0.1817576 -0.042218033 -0.15509664 0.22460881 0.2187416 0.12555505 -0.1017667 0.26064956 0.15624483 0.012538279 -0.042024422 0.081627406 -0.061717644 0.0032570716 -0.033940118 -0.0060572494 -0.4684926 0.022562658 -0.08166207 0.2812595 0.1519747 -0.35227233 -0.05451637 -0.07376115 -0.13549043 0.1789151 -0.00065522734 -0.349709 -0.2166673 -0.028595312 0.24079847 -0.06832617 -0.40112334 0.15188842 0.3492544 0.17100082 0.33558297 0.08285078 0.20617087 0.22233137 -0.14282265 -0.08718715 -0.076481275 0.12332254 0.015076284 0.14430192 0.06466585 0.18952315 -0.22173497 0.11284554 -0.21642087 0.021798884 -0.47565964 0.15055099 0.1659904 -0.09729468 -0.022337237 -0.29321486 0.15527771 -0.006338341 0.37365142 -0.15058926 0.022154948 0.16924018 0.048751663 -0.015149241 0.015465373 -0.014622037 0.37892258 0.021611055 -0.12852147 -0.23353873 0.2801431 -0.07144347 -0.17416169 0.14333938 0.10604015 -0.17313187 0.26414773 0.0203921 0.33330435 -0.34489217 0.21714821 -0.12266803 0.28831574 -0.21921118 -0.02304126 -0.36578673 0.26832464 0.21279512 -0.25401807 0.34939593 0.21986304 -0.03803189 0.032782078 0.098479055 0.027287217 0.20853923 -0.07697442 -0.050228167 -0.3338921 -0.30424783 0.17089804 -0.124401286 0.1478546 -0.00022628969 -0.122800246 -0.024160255 -0.022155475 0.062101055 -0.16782933 -0.15371856 -0.15902145 -0.023751331 -0.06336704 -0.07764983 0.18258446 -0.14581947 0.4672325 -0.027306164 -0.16613312
速 -0.29488307 -0.056831356 -0.5640127 -0.4102265 0.29839632 0.13238877 -0.106616445 -0.002569945 0.2405728 -0.07386623 0.5068744 0.087816544 0.09069411 -0.25585142 -0.37662876 0.12145572 -0.17952187 -0.19199774 0.19840573 -0.24117263 0.2642235 -0.09683948 -0.42402086 -0.1380676 -0.22504419 -0.36725295 0.22825561 0.14884719 -0.20194104 -0.17254259 -0.22666751 0.076047 0.6560336 0.007682232 -0.20691636 -0.34748343 -0.21859191 0.46213397 -0.6155596 0.024677064 0.3073056 -0.21297403 -0.53647065 0.13750656 -0.02740081 -0.3553672 0.21922018 -0.053540774 -0.038000524 0.29597092 0.18118814 -0.009531103 0.27557236 -0.086931705 -0.1282173 -0.09118959 0.47919855 -0.64279217 -0.13833258 0.0926198 0.01855553 -0.09167188 -0.06773967 -0.07900768 0.4110825 -0.18690407 -0.23547061 -0.21909045 -0.45067298 -0.36186966 0.39974105 -0.38142228 -0.20329115 0.5092314 0.43825075 0.30219376 -0.14331456 0.09979212 -0.2397214 -0.3987209 -0.07436781 0.1430393 -0.09175002 -0.015322562 -0.060321346 -0.15855898 0.24192175 0.24274698 -0.053075884 0.41766918 -0.043715023 -0.08298517 -0.11391246 -0.0561711 0.26054034 0.4392286 0.16565396 0.3836553 -0.45424464 -0.32452425 -0.1977878 0.29876682 -0.25119427 0.0063946834 -0.28643155 -0.07312702 -0.346225 -0.02113521 -0.554925 0.102862805 0.25037003 -0.14790201 -0.3533208 -0.5359926 -0.111779995 0.07996185 0.2948379 0.013711361 -0.5594508 0.029434025 0.27088282 0.24884388 -0.16114107 0.34459722 -0.69920486 0.19780609 -0.02979152 0.1579696
都 0.1051412 -0.16465451 -0.0736415 -0.063649535 0.3691126 0.21047601 -0.21661204 -0.12032258 0.06853275 0.08575489 0.19067638 -0.093090534 -0.14600833 -0.2160605 0.19401601 -0.010523714 0.13267355 0.026014062 -0.039717343 0.09514827 -0.09513673 0.3142809 0.058661457 -0.1521758 -0.041691564 -0.08444381 0.1825808 0.041195083 0.09325382 0.10087507 0.30594024 0.083662815 0.20942329 0.15027596 0.13611582 -0.1429934 0.15023161 -0.1417256 -0.10557643 -0.23838197 0.015634852 0.34920478 0.009241981 0.13746257 0.23762746 -0.074901596 0.087031215 -0.011900335 0.16731349 0.12665056 -0.054456446 -0.25715518 0.16716063 -0.040551867 0.13721718 0.008950242 -0.0038337575 0.035283502 0.17315993 0.15631571 -0.040863853 -0.07964481 0.36818314 -0.026010092 0.005764558 -0.15810947 0.035739336 0.16590683 -0.19326901 -0.12843902 -0.00372583 0.14256139 0.033087127 0.050122 0.05755342 0.12338112 -0.26425436 0.1330095 -0.1984466 -0.035070617 -0.26538283 0.29731992 -0.035193596 -0.042234797 -0.054555845 0.067587666 0.0936522 0.04525286 0.23793139 0.1910569 0.076294206 0.3759723 0.008230308 0.20263478 -0.027217457 0.07458688 0.060286812 0.021763569 0.049874667 -0.20098692 0.042135067 0.22379369 0.12281215 0.10214303 -0.3136638 -0.07926485 -0.23333126 3.8697544e-05 -0.11140082 -0.13521318 -0.34260496 0.08670137 0.007398053 -0.025034327 0.0009831424 0.045247916 -0.018356692 -0.27430198 -0.049541105 0.14596184 -0.14765616 -0.028246878 -0.45247886 -0.21358077 -0.15336265 -0.15161051 -0.029803172 -0.055721104
比 -0.36823347 -0.2063045 -0.1483105 -0.44518736 0.19987246 -0.28813574 0.027944861 0.37555343 0.059114553 0.16892059 0.37838113 -0.32137582 -0.15637372 0.13682799 -0.03304381 -0.034367472 0.120830186 0.04471408 0.18496393 0.019970067 0.056753024 0.1363685 -0.013199193 -0.47688463 -0.084420025 0.15660204 0.0035112104 0.18830425 -0.23440844 -0.35505825 0.32374167 0.3358951 0.4270668 0.5059283 -0.06279443 -0.1965112 0.11199935 -0.34472013 -0.47942996 0.17302811 0.11275441 0.1535521 0.23205274 0.14396216 0.0049665635 -0.2646155 -0.24842049 -0.12480266 -0.23791365 0.09935869 0.36794037 0.1169402 -0.32361147 0.19346169 0.1593981 0.022452174 -0.11106311 -0.12460684 -0.36717206 -0.14570764 -0.19831882 0.082885444 -0.53272974 0.06376065 -0.15906498 0.078905165 0.04632929 -0.038284075 -0.32869405 0.35600612 -0.095062256 -0.15743159 0.20719533 0.10114836 -0.0067437273 0.17760146 -0.20349759 0.17651987 -0.20882975 -0.3870658 -0.18633735 0.14665419 0.2824444 0.3815703 -0.393438 0.17457086 -0.002820677 -0.0113832345 0.090352625 0.24893752 -0.20557706 0.14608382 -0.27496597 0.052995417 -0.015774082 0.40187743 0.06952541 -0.057075348 0.28213727 -0.31352654 0.030364657 0.28490013 -0.1323972 -0.19185293 -0.09576692 -0.027674256 -0.21985658 -0.053811427 -0.45323896 0.092541434 -0.0870967 0.117181994 0.16104679 0.34663174 0.18804958 -0.04919402 -0.2144408 -0.25512952 0.16957884 0.015386273 0.26343885 0.039372295 -0.036327183 0.38737744 -0.21210936 -0.1915218 -0.26175863 -0.11945776
上 0.031761482 -0.028767962 0.06014919 -0.25066942 0.19476266 -0.085394695 -0.12274941 -0.15922919 0.16925421 0.30415803 0.122344114 -0.09228687 -0.08336712 -0.17249063 0.32060152 0.012945242 -0.33814126 0.13658147 0.017006757 0.10834866 0.0036425118 0.04488752 -0.029676676 -0.19813347 0.067708574 0.0020945468 0.15164596 0.41171634 -0.2779015 -0.06192194 0.07510193 -0.020731432 -0.07513925 0.12132469 0.12918341 -0.22886765 0.123086326 -0.020826237 0.16637367 0.11813414 0.24991392 0.33333167 0.03574173 0.5044161 0.35609353 -0.11892322 -0.022282185 -0.007819549 0.0048305583 -0.068111956 -0.17311318 0.1067943 0.2966164 -0.059029114 0.04076784 0.35483468 -0.13492519 -0.47816035 -0.113168284 -0.21355039 0.14472997 0.17675471 0.13011706 -0.090075515 0.38197425 -0.487697 0.105326876 0.01838975 -0.3535415 0.11173285 0.14573973 -0.22458622 0.20541485 0.4693671 0.197482 0.19015996 0.032822285 -0.055452753 -0.023950359 -0.21133603 -0.056365184 -0.065781474 0.14370671 0.4617937 -0.39456955 -0.11632239 -0.24121842 0.08147143 -0.16603002 -0.30173302 0.05142475 0.38832852 -0.15624453 -0.014048014 0.3063334 0.19168472 -0.08137948 0.10223006 0.14431584 0.14590748 0.028800022 0.27944508 0.2009053 0.05164977 -0.08999972 -0.041816134 0.1702874 -0.3164847 -0.2249126 -0.2085674 -0.32853884 0.15913557 0.15011427 -0.19845757 0.037839983 -0.15256347 0.026538817 0.1889921 -0.17699732 0.15004244 0.0066982294 -0.19742878 -0.2075204 -0.24545412 -0.27282676 0.07995686 0.31129393 -0.00985777
以 0.022010313 -0.10634714 -0.2890209 -0.036061455 0.37898535 0.03867911 0.23807822 -0.046894465 -0.109481566 0.13604082 0.10640083 0.3116545 -0.05322313 -0.25803396 -0.10714905 0.39026758 -0.018852867 -0.20660144 -0.18399417 0.17081746 0.28552642 0.18139195 -0.1779851 0.028312227 -0.02203632 -0.28848696 0.32240686 0.2783213 0.33683413 -0.297613 -0.30469075 -0.020127991 -0.07114222 0.119509734 -0.45172054 0.10566744 0.31308708 -0.42718923 0.22675243 -0.115757436 0.22347718 0.33479914 0.39703068 -0.010950703 0.32308546 -0.12395951 0.36561555 0.2535596 0.096274115 -0.42925915 -0.035175443 0.10407005 0.11133993 0.13782574 0.09350709 0.06507841 -0.044277396 -0.17066745 -0.10192891 -0.15720074 0.16223864 -0.22783011 -0.18168296 0.025393466 0.19637258 -0.011603252 -0.21384516 0.23898691 -0.2685172 -0.18495508 0.43104115 -0.41201517 0.613148 -0.10824199 0.52313787 -0.35048255 -0.2223854 -0.14676397 -0.037733603 -0.12694415 0.054295443 -0.2862373 -0.16010009 -0.15514918 -0.07083522 0.498631 0.011562662 0.17338723 0.20058806 -0.083634116 0.28739113 0.40851402 -0.20120206 -0.30563653 -0.049510803 0.2905208 -0.27889684 -0.03841329 -0.035799466 -0.3211147 0.13389477 -0.1594918 0.15158813 -0.03685569 -0.07640385 0.24806812 -0.04341052 -0.30258268 0.116660684 0.1745439 -0.22545184 0.2185536 -0.061160598 0.009165846 0.4841265 -0.2174723 0.06438701 0.031844992 -0.02844018 0.070909925 -0.26303676 0.33729252 -0.13687499 0.38068098 -0.26133272 0.04768841 -0.19881164 -0.37049007
你 0.08877105 -0.08935711 -0.13120413 -0.1681485 -0.054146904 0.05795488 0.18983558 0.078897834 0.021081232 0.22871742 -0.20608975 -0.1708656 -0.40514776 -0.08533097 0.25754845 -0.10948565 0.10266745 -0.35446176 0.10768862 0.11915588 -0.0047544125 0.122284465 -0.27141753 -0.24043904 0.18958154 -0.3045475 0.3207226 0.3524229 0.07212249 0.077622995 -0.28270298 -0.20986597 0.044309855 0.15590884 0.011316957 -0.14770441 -0.31692734 -0.11135947 0.15840118 0.045607474 0.43522346 0.1728413 0.17663237 0.19248562 0.2628487 0.22413506 0.3242622 0.17295349 0.3927468 -0.13338947 -0.066113636 -0.057402957 -0.0728129 -0.10894817 0.30266112 0.15026908 -0.21517016 0.36903065 -0.24713326 -0.041253146 0.115421735 0.26082173 0.10075968 0.062932424 0.020412572 0.21171436 0.012551358 -0.11945214 -0.50951827 0.07593549 0.24178277 -0.02375085 0.38287297 0.19553874 0.25458336 0.03328831 -0.49116874 0.052231453 -0.27730882 -0.040061537 0.20375991 0.17125596 -0.24526612 -0.029818607 0.018662812 0.06562095 0.07637362 0.12037079 -0.016716696 0.1894501 0.2642348 0.030897131 -0.01916216 -0.30954626 0.109318964 0.28262764 0.16632102 0.34806082 -0.14157164 0.0113447085 0.18147449 -0.022903094 0.15121642 0.059183124 -0.20630383 -0.23614675 -0.10694185 -0.16314423 -0.18837614 -0.2825362 -0.19031844 -0.21339394 -0.17495683 0.03226274 0.018038256 -0.10582616 0.014915917 -0.12155339 0.014087498 0.09056511 0.21447168 0.112923495 -0.34517726 -0.21284555 -0.23487371 -0.036001526 -0.104319714 0.25748298
用 0.14723493 0.06512136 -0.10889683 -0.20045085 0.199398 0.030648626 0.009594663 -0.27517104 0.22479011 0.08104381 0.15046763 -0.101453066 -0.112544686 0.40508914 0.10617168 0.045846146 -0.00716336 -0.019198326 -0.0028146002 0.15536346 -0.26339322 0.14931332 0.27495423 -0.12349042 0.11446878 0.43972695 -0.39587742 0.08288199 -0.30027384 -0.16403456 0.119093515 -0.046065398 0.2647717 -0.011010237 0.05949682 -0.51313066 -0.14039962 -0.043354128 -0.054190893 -0.13329056 0.25290766 0.15668824 0.16253982 0.22187448 0.22669587 -0.10481826 -0.14045057 -0.03283655 0.41204196 0.07310196 -0.2999303 0.018704394 -0.28586915 -0.115648076 0.45064571 0.12662013 -0.21937692 -0.19160376 0.0877259 -0.15221433 0.6216935 -0.13775863 -0.08069463 -0.11267586 0.07910235 -0.049075227 0.011715271 0.47653356 -0.33726245 -0.25387493 0.032514956 0.15676849 -0.040759265 -0.09283381 0.30937117 -0.08035855 -0.32470766 0.13504636 -0.18003987 -0.11250032 -0.20257768 0.08541127 0.0031734647 0.03397992 -0.23215716 0.14619948 0.3452217 0.03662714 0.15109546 0.4398771 -0.18224563 0.05181526 -0.18317191 -0.045788072 -0.06321208 0.24808228 0.05810163 -0.07999126 -0.060566068 0.16614856 0.21988712 0.10885874 0.1569662 -0.16746606 0.11146487 0.08656408 -0.020203358 0.13652776 -0.063640155 0.023389647 -0.31154588 -0.049755 0.1461965 0.10456949 0.18240859 0.15531072 -0.08761918 0.028118033 -0.4486104 -0.048015274 -0.15650427 -0.12717889 0.30216372 0.0015998115 -0.391132 0.06813789 -0.36027855 -0.012955779
高 -0.29914033 -0.1251691 -0.2709999 -0.47510427 0.41715956 -0.06640109 -0.062228113 -0.009232911 0.027726246 -0.007467843 0.20376834 -0.09191314 -0.026748128 -0.39893097 0.14737315 -0.13235217 0.19963723 0.06377363 -0.025560709 -0.19112706 0.101972066 -0.03165646 0.12639709 0.2787363 -0.15228288 0.10848975 0.17482825 -0.10827446 -0.18107764 -0.009975623 -0.44972068 -0.29349044 0.18702836 -0.17017908 0.26294032 -0.198598 0.24852924 -0.2078199 -0.11323204 0.21886629 0.61746496 0.054436672 0.3729983 0.10364405 -0.021476751 -0.23064609 -0.027017655 0.26476324 -0.061905257 -0.13411829 0.15510286 0.12936099 -0.07425854 0.003908273 -0.113043524 0.073850915 -0.0032017722 -0.44497564 -0.42582017 -0.26276395 0.11992458 0.017766003 -0.028816028 -0.007920872 -0.0644021 -0.45997992 -0.106085435 0.07904592 0.024581082 0.14861025 0.22601777 0.09534701 0.31481764 0.05719348 0.30467117 0.29428497 -0.042199463 0.09371588 -0.20375556 -0.4033869 -0.26369098 0.20431916 0.27532881 0.07792933 -0.17053719 0.095213115 -0.14545004 0.20803028 0.20730536 0.44838893 0.36255622 -0.12539418 -0.036032088 -0.15787451 0.068460785 0.431116 0.4652786 0.15539996 0.4787126 -0.109120615 -0.5308539 0.11213853 -0.59230405 -0.14361547 -0.39984694 0.19967252 -0.3197424 -0.06366203 -0.08064549 0.013401812 0.15959908 0.13240433 0.10698049 -0.02692689 0.009284062 -0.073303 -0.0073141055 -0.07248797 -0.1872497 -0.19250551 -0.040922694 0.19950782 -0.06692426 0.38913766 -0.054930232 -0.034031317 -0.07036532 0.1046894
林 0.2066744 -0.12127537 -0.5732522 0.028022291 0.53679526 0.0010583125 0.22701843 -0.064938 0.19620764 -0.15708436 0.3428988 0.15255629 -0.7200262 -0.21059725 -0.13623056 -0.23779146 0.16227987 0.2185062 -0.21090849 -0.3630257 0.20536336 0.031692218 0.12987596 0.21115366 0.12336991 0.10460726 0.21810566 -0.16796786 0.062792964 -0.33321536 -0.1223929 0.3180189 -0.17345135 0.47336635 0.27510375 -0.02121501 0.4926723 -0.116409995 -0.19008645 0.11542771 0.39774644 0.5261833 -0.08130397 -0.096244335 0.14318004 -0.15808637 -0.08425119 0.016712341 -0.03942752 0.36338636 0.2844415 0.40524244 -0.13005233 0.16294351 0.21081723 0.22703902 -0.49358717 -0.2594679 -0.59132487 -0.3909598 0.34208935 0.35054708 0.3406451 -0.053954754 0.43026188 0.19513944 -0.06302099 -0.029576313 -0.19168757 0.23955317 0.097468995 -0.23234944 0.42204487 0.003421746 0.061108854 0.29919612 0.1372932 0.26483762 -0.030643199 0.04320878 0.25214052 0.5520416 -0.3014157 -0.0930605 -0.050689008 0.07010027 -0.14925505 0.15407665 -0.27391556 0.13773656 -0.23086675 -0.09162744 -0.3835347 0.11530284 -0.121640004 0.27766454 0.1794481 -0.32784086 0.10285923 -0.6692561 0.15299955 0.20710789 0.5967452 -0.56988484 0.24023432 -0.03453681 -0.2773715 0.051092707 -0.26748252 -0.43557295 -0.06607906 -0.011849115 -0.38915622 0.036922023 -0.12641685 0.35145766 0.28091046 -0.23734154 0.28158715 -0.035853453 0.35015994 0.03815032 -0.5534777 0.21231978 -0.2597204 -0.023233315 -0.35535753 0.036543664
发 0.38462415 -0.6216059 -0.08852303 0.24433151 0.28779966 0.21604094 -0.43982494 -0.27443656 -0.24033183 0.24010144 -0.054250155 0.17065421 0.46939948 0.028973276 0.27017957 0.40143883 0.045898996 -0.14838324 -0.20299263 0.23134924 0.035202503 0.008182905 -0.076974116 -0.10995554 -0.05163047 -0.058256254 -0.23218931 -0.12158757 0.11116909 0.2732677 0.08267811 0.4458397 0.070563756 -0.015479019 0.11484159 -0.0665199 0.251046 0.27625948 -0.0768135 -0.17477426 0.4041977 0.38197517 0.38305598 0.050760135 0.34773284 -0.47582552 0.43707597 0.062402084 -0.3454113 0.13229191 0.61438304 0.19140846 0.19508222 -0.27350435 0.43449056 -0.14215215 0.28044787 -0.36146092 -0.07912285 -0.072585724 -0.08722916 0.368576 0.015169143 -0.21831588 0.40208796 -0.002417976 0.14537016 -0.1365583 0.010933065 0.45412865 -0.1343747 -0.007392528 -0.27665207 0.14985183 0.1750524 0.2538343 -0.26531836 -0.04168422 -0.20045213 -0.09816139 -0.46508697 -0.38195303 0.34372935 -0.37341604 0.098056436 0.20925893 0.32534185 0.017341012 -0.17257085 0.13364814 0.10646024 0.17356198 -0.45694676 0.09734638 -0.1424123 0.23316245 0.1363342 0.020471577 -0.26227018 0.051916637 -0.023020778 0.025505597 0.142563 -0.26766682 -0.6975026 -0.065393396 -0.14815615 0.15838361 -0.0667938 -0.4422617 0.36659986 0.18935408 -0.015361332 -0.049515072 -0.09138029 -0.08860247 -0.01884145 -0.0498354 0.06316626 -0.41740903 0.3401254 0.3103703 -0.28566888 -0.1913087 -0.3581616 -0.17108424 -0.044244755 -0.15017876
价 -0.15275113 0.29398715 -0.48098472 -0.4738523 0.21804807 -0.26488143 -0.29804483 0.035637025 -0.47978786 0.3935976 0.5003536 0.17974839 -0.37430555 0.04560515 0.45709056 -0.10872292 0.24540852 0.041645885 0.3543744 0.06970251 -0.0475116 -0.06462412 -0.055003196 -0.33283228 0.21963228 -0.25410795 0.35319272 0.073891856 0.37094238 0.35707086 -0.15152639 -0.3336026 0.28887808 0.32412484 -0.113323905 -0.19839671 -0.0061655394 -0.29168355 0.13737972 -0.17663565 0.54899585 -0.0074779782 -0.3662619 0.049066987 0.06208079 0.27450204 -0.038508624 -0.24793026 0.25345638 0.3672596 0.080821715 -0.1290624 0.24758168 0.24729352 -0.014817391 -0.16002566 -0.39750722 0.35865128 -0.15956385 -0.57382923 0.20239323 -0.034510862 0.08147234 0.023589868 0.08007677 0.0049091415 -0.17309016 -0.060369782 -0.25793183 0.31819877 0.49534276 -0.5494555 0.24718292 0.31363398 0.45574418 -0.25282478 0.019631132 0.36318398 0.11599835 0.14918602 -0.08773931 -0.06994046 0.34507832 -0.218323 -0.2359549 -0.06799759 -0.1897745 -0.017564768 0.3018055 0.5224929 -0.40746891 0.111236386 0.07129305 -0.015500159 -0.51274073 0.4987752 -0.06023877 -0.14553076 0.06470849 0.34921795 -0.039170634 0.53637135 0.015736116 -0.41031158 0.10000035 -0.17596546 -0.07696108 -0.11221328 -0.12530842 0.13462628 -0.15213296 0.20369759 -0.031541377 0.49090773 -0.326989 -0.11032491 0.047535118 -0.13089179 -0.29387826 0.0021504965 -0.3700577 0.121001504 -0.03674771 0.024207179 -0.048909754 0.0391436 -0.5246286 -0.05685242
能 -0.2605666 0.03456859 -0.079254314 -0.2149052 0.12052636 0.12546355 -0.036043067 -0.13287489 -0.26313242 -0.14803857 0.07858987 0.12513134 0.013966927 -0.18297365 -0.07403572 -0.34034735 0.28190696 -0.12805644 -0.135634 0.04332224 -0.32641998 -0.1261049 0.15052289 0.022444785 0.14795539 -0.5417252 0.27662164 0.049155924 0.09839943 -0.023214327 -0.12337509 0.041060377 -0.1037672 0.32452366 -0.28078225 0.059533652 0.088714026 -0.11214356 -0.43444258 0.03734156 0.13394639 0.30143216 0.14883518 0.4054009 0.36278644 -0.26688895 0.34930205 0.28875598 0.37828067 -0.1923199 0.07873155 0.007682917 -0.33331946 0.15314737 0.0048026755 0.2298355 -0.10060849 0.11473907 -0.10607718 0.14574288 0.067088254 -0.0020730018 0.18973505 0.031699993 0.15799071 -0.01526675 -0.024388656 0.21895267 -0.14244978 -0.16582566 0.66776586 -0.3950138 0.13716863 -0.078408286 0.08741858 -0.21638855 -0.25303355 0.17105635 -0.090271376 -0.06355154 0.20590833 -0.109041475 0.13091037 -0.10299291 -0.31899732 0.4987302 -0.23382722 0.16958697 0.30338895 -0.025835559 0.36760515 0.63556474 -0.24036607 -0.06963896 0.18360282 0.4272074 -0.05494488 0.052362513 -0.02573864 -0.19420736 0.10396943 0.1751717 -0.021688933 -0.22564262 -0.03839391 0.008001707 -0.28129038 -0.06617195 -0.48319417 -0.047336612 0.03520621 0.07105162 -0.24292661 0.037868436 -0.115440466 -0.15715346 0.07494762 -0.18779133 -0.40269074 0.076081075 0.017878465 0.18372726 -0.26498136 -0.07797222 0.16083096 -0.1621104 -0.26018435 -0.15648794
后 -0.143533 -0.45016503 -0.6114815 -0.032316025 -0.007733081 -0.1287862 -0.3024049 0.20486772 -0.086187914 0.49107558 -0.10151936 -0.023725325 -0.17005143 0.052195083 0.16402929 0.535801 -0.15133122 -0.50816166 -0.041127488 -0.15748632 0.24523419 0.006482412 -0.05564577 0.12015108 0.0427395 0.2920176 0.21092202 -0.04855743 -0.33437467 -0.15497768 -0.44226468 0.0022491966 0.03299289 0.31329516 -0.12548825 0.10210432 0.23976703 0.27987078 -0.34746146 -0.6169784 0.24918337 0.50921196 -0.17204416 0.03714092 0.50713 0.10390437 0.15002309 0.023595775 0.39101845 0.058560323 0.0029398475 -0.22229497 0.019784529 0.20330639 -0.14764127 0.04587176 -0.29677904 -0.11923931 -0.21997467 0.04071027 0.05487068 0.1974406 -0.19671756 -0.036411192 0.074886754 -0.087565556 0.044047244 -0.14134558 -0.37867483 -0.20266971 0.028649168 0.102514096 0.22999588 0.20157708 0.25749856 0.06302682 0.09917194 0.16178359 -0.034640096 -0.31785536 -0.069075145 -0.014013741 -0.21621893 -0.32752183 -0.2543579 0.22030473 0.17305672 0.00685832 -0.34433535 -0.027462495 -0.4991591 0.07887335 -0.17928448 0.13480866 0.47193566 0.0035678726 -0.3133466 0.35793957 0.5086613 0.22766316 -0.060564723 -0.118181705 -0.19341455 -0.5228884 -0.35186622 0.05930774 0.35523796 0.08819622 -0.2612085 0.089649074 -0.0016161716 0.28131488 0.18304275 -0.19295828 -0.104140736 0.02100124 0.037797753 0.30707583 -0.043541387 -0.28782538 0.09076663 -0.27706483 -0.2553107 -0.46730858 -0.20849621 0.25129658 -0.052466057 -0.40947616
力 -0.0031083236 -0.15107292 -0.49334806 -0.3141158 0.1735332 0.11695626 0.08979602 -0.15524939 -0.19453405 0.28908548 0.46844 0.43603474 -0.02729571 -0.06272294 0.21739179 -0.3305969 -0.25982258 -0.083202966 -0.017443616 0.4108001 0.11179998 -0.10192787 0.3675859 0.013036953 0.0314353 -0.06853272 -0.13452913 -0.1932436 -0.28098226 -0.12746924 0.08071906 0.3667032 0.1306631 0.2014916 0.35906896 -0.033376623 -0.11720191 -0.07228159 -0.00011498 -0.009044058 -0.016708348 0.35863227 0.0038102642 0.14311013 0.25782102 -0.15972279 0.43209586 0.12119063 0.7107957 -0.45532534 0.4955108 0.11736791 -0.3110352 0.06590468 0.010607659 -0.05593889 -0.08964417 0.02857127 0.0760187 -0.26535305 -0.09131287 -0.18241046 0.06867087 -0.30467466 0.50551474 0.09245388 0.13786457 -0.14441112 0.18426362 0.17439789 0.4468863 0.34991938 -0.19021398 0.35134944 0.50555557 0.401658 -0.29706913 -0.29062352 -0.3482268 0.12181402 -0.1140654 -0.02308417 0.40669474 0.039339695 -0.09092591 -0.24800277 0.20096707 -0.13041608 -0.43984178 0.3105257 0.24693374 0.32610285 -0.16108459 -0.12568094 0.13394064 0.40501493 0.12964 0.42585912 -0.5105781 -0.12638126 0.11961468 -0.12126126 -0.42158377 -0.005004626 -0.0023225788 -0.18169439 -0.48206863 0.2758863 -0.3813354 -0.10736323 0.07509766 -0.5205935 -0.0640508 0.10222553 -0.06587297 -0.2352642 -0.07391051 -0.115686536 -0.0062424154 0.3801644 0.2623063 -0.21766265 -0.3922782 -0.13351637 -0.22248632 -0.0013732433 -0.083925255 -0.17213817
时 0.2072774 -0.18567488 -0.13199654 -0.53764886 -0.19724351 -0.3428273 -0.14265184 -0.31223515 0.23380357 -0.2566017 -0.18901516 0.2851133 -0.11689955 -0.23476118 0.15287429 -0.40190578 -0.39883554 0.0320629 -0.12902367 0.0020002446 -0.0888389 -0.05550977 0.18467881 0.08912167 -0.17083819 -0.122717686 0.30414614 0.34499255 0.14679773 -0.12322323 -0.39742094 0.14290456 0.15002021 0.12148941 0.4093756 -0.0906147 0.07048757 0.102114506 -0.29963487 -0.09202298 0.14573598 0.3113056 0.12837128 0.12914416 0.009102882 -0.4795898 0.09465991 0.020061865 0.24348779 -0.43640575 0.23924434 -0.16146664 0.73214036 0.20952582 0.007127728 -0.28583044 0.2013252 -0.567656 0.33185044 0.33218935 0.28182173 0.078831725 -0.11637489 0.7677563 -0.12959428 0.2353962 0.108664766 -0.34647825 -0.28674853 -0.03442202 0.21056737 0.22625677 0.28722098 0.3473459 0.4080777 0.1583877 -0.52465236 0.39956087 -0.22549067 -0.46262446 -0.51992327 -0.07864917 -0.24368177 0.22258833 0.21774383 0.20795693 0.28241014 0.5538588 0.06439514 0.57880086 0.25086534 0.12001692 -0.3254917 0.31338525 0.42046407 0.22899827 0.1124361 0.42517617 0.118244626 -0.23416166 0.4051238 -0.008803012 0.14981346 -0.5551762 -0.32143217 -0.07305479 0.17052571 0.12926252 0.059946083 -0.06986569 0.15929161 -0.15023203 -0.24041818 -0.05619102 -0.19365123 0.21018872 -0.108056754 0.12564796 -0.081024 -0.27436435 -0.048257753 -0.0031793707 0.09047308 -0.07282089 -0.14141966 -0.19651175 -0.38576874 -0.51184446
看 -0.070449896 0.18200755 -0.030055301 -0.055645753 0.07051623 -0.03527606 -0.13429034 -0.13439754 0.32545602 0.10575354 0.03756315 -0.182327 0.020054633 -0.19409676 -0.012227473 0.4976822 0.14707382 -0.27776414 0.20108676 0.07182678 -0.22832541 0.10590327 -0.3607893 -0.15501298 -0.16537432 0.3226095 0.5839521 0.53810436 -0.16195253 0.30737004 -0.062013645 -0.027182216 -0.023539543 0.13864344 -0.18978076 -0.17471226 -0.0026210663 -0.24478821 -0.14386234 -0.16025744 0.23396021 0.3916548 0.34141156 0.3779074 0.20657803 0.41195548 -0.13422598 0.051346038 0.5071225 -0.17751764 0.2311094 0.25014138 -0.055354208 -0.43040225 0.43833527 0.09898595 0.03773159 0.094158456 -0.44896922 -0.14972183 0.11563788 0.19056208 -0.028147643 -0.19727628 -0.35015172 -0.1346889 0.046580035 0.050840918 -0.057482075 0.104788005 -0.12873815 0.2362111 0.49549025 -0.35218534 0.028186962 0.095875666 0.148973 -0.030284183 -0.04163385 -0.019599304 -0.23442146 -0.020649495 0.18422756 0.07452196 -0.07284905 0.09258069 0.1677289 -0.024096753 0.26809433 0.3203788 0.2193478 0.45404553 -0.09925969 0.23971064 0.27331412 -0.011837872 -0.03307506 0.08948736 6.2658095e-05 -0.12712462 -0.11073557 0.022937456 0.14642492 -0.103976436 -0.044764023 -0.11447357 -0.07762262 -0.05192847 0.0035088893 -0.08706712 0.3280312 0.4908181 -0.14829867 0.06719462 -0.06396943 0.020248922 0.13370825 0.082236856 0.24126531 0.16044305 0.08770007 0.14916624 0.26843455 -0.07330598 -0.38123724 -0.32461023 -0.16129248 0.18453716
点 -0.018078057 -0.23473312 -0.110631995 -0.101019144 0.2720203 0.041094314 0.21764241 0.053234085 -0.38623688 0.1929835 0.27874655 0.068950154 -0.14326595 0.13075304 0.099145286 -0.115907446 0.0634011 -0.35500887 0.20412502 -0.32609424 0.05558544 0.47843197 -0.1216597 -0.08980294 0.10199536 -0.15650499 0.45010224 0.29033172 0.056207363 -0.37994555 0.010292609 -0.041347258 -0.029072125 -0.14678177 -6.846539e-05 -0.0829768 0.3273236 0.0047546416 -0.007173778 0.084439896 0.053368796 0.112867855 -0.38339517 -0.10236771 0.19594167 -0.076270014 0.094682544 -0.45401806 -0.029329652 0.030434709 0.33078575 -0.14132792 -0.080139965 -0.11498076 0.21809681 0.12676902 -0.22313114 -0.30641443 0.40562502 -0.053265356 0.076474324 0.23025358 0.13872357 -0.17800413 0.27323943 0.2168821 0.34052494 -0.038302496 -0.026753463 -0.023023164 0.5280316 0.06686281 0.0824212 -0.20105398 0.09421827 0.09977713 -0.25680104 -0.4972357 -0.17892583 -0.26278543 -0.12277934 0.1748537 -0.003669531 -0.02766275 -0.10560745 0.4307561 0.057016317 0.18145172 0.031900384 0.3089437 0.09915379 0.1698766 -0.3658321 0.107739955 0.19302191 -0.45216134 -0.15347788 0.2895735 0.09835919 0.17018694 -0.26874056 0.34176138 -0.240872 -0.15367666 0.19965823 0.058608703 -0.24052212 0.090443395 -0.1216181 -0.18542992 -0.12432771 0.014117458 0.0998489 -0.06457285 -0.092493206 0.043674715 0.16922253 -0.22063155 -0.045117304 0.16375029 0.12989415 -0.19464108 -0.2757528 0.080868244 0.18380433 -0.05301258 -0.20635961 0.03293681
可 0.36169326 -0.052891027 -0.09136818 -0.20875701 0.21092296 -0.07232969 0.30935258 -0.23462404 -0.15830067 0.25943473 0.10912729 -0.12903862 0.16690022 0.019781139 -0.1076008 0.23429745 0.06807256 0.011257857 0.09635198 0.15774117 -0.02657161 -0.28345242 0.19442222 -0.15831482 -0.02848044 -0.1330014 0.6743503 0.21439828 0.05327409 -0.21119674 -0.10718505 -0.36802387 0.13756207 0.14293545 -0.1308853 0.16664511 -0.016578272 -0.016106473 0.3564046 -0.14700028 0.14730963 0.64317757 0.10401714 -0.17679057 0.5956491 0.14702953 0.30018812 0.026704757 0.11950717 -0.14375763 -0.40375122 -0.015416684 -0.055335548 0.03151367 -0.063676335 0.14274955 0.008998374 -0.45556116 -0.26122457 -0.30926344 0.2373308 -0.11687737 0.049243007 -0.051549245 0.18326023 -0.02632492 0.18983713 -0.071238525 -0.3078067 0.49894515 0.19482674 -0.3899511 0.27143338 -0.1325808 -0.037884284 0.022954395 0.1520797 0.08794297 -0.25846484 -0.1671872 -0.2597841 -0.27030146 0.027360365 -0.103381954 -0.2038548 0.39335492 0.53264403 0.3677785 -0.16909371 0.24571985 -0.22778943 0.36966875 -0.21462378 0.17722784 -0.20652464 0.54967636 0.17484464 0.24386434 0.039570544 -0.048849817 0.16585672 -0.14108421 -0.11512236 -0.13343199 -0.021861613 -0.23803997 -0.39228618 -0.046037525 0.116442405 -0.09965379 -0.0068433173 0.2790523 0.04236878 0.073047206 0.23583463 0.07607694 -0.11655862 -0.0273431 -0.15962636 0.14995506 -0.3420124 0.02476778 -0.4470763 -0.27496606 0.018797256 0.038153436 0.18229443 0.1472495
过 -0.10178965 -0.07134132 0.005063947 0.051830705 0.23905149 0.266769 -0.30463958 -0.14983015 -0.15970592 -0.029715285 0.37248373 -0.1850567 -0.51688343 -0.075395755 -0.1524535 -0.015315706 -0.020670447 0.20688413 0.16476984 0.048537232 0.13724609 0.06459722 0.20261429 -0.07221681 0.03149331 -0.22174077 0.29671177 -0.02951156 -0.01602758 0.2548548 -0.039337575 0.2660117 0.06405567 -0.098272584 -0.18566854 -0.23378506 0.0809396 -0.08919625 -0.37246716 0.17778173 -0.076060385 0.41093108 0.33305863 0.35273007 0.10393668 -0.081049696 0.04691373 0.25659963 -0.29592538 -0.06983111 -0.14208783 0.006326718 0.089614175 0.0423244 -0.21670456 0.223808 -0.31774393 -0.4730012 -0.11631111 -0.0537272 0.098356664 0.019917129 -0.03702939 -0.066565335 0.058247894 0.019759417 0.02635212 0.19880982 -0.25536376 -0.10525067 0.08697833 -0.08268424 0.17660137 -0.14040639 -0.007395741 0.3084509 -0.6593732 -0.03792098 0.2968069 -0.2358935 -0.019734776 -0.028673295 0.10242434 -0.12347175 -0.19587773 0.20909159 0.5030363 0.052069213 -0.13304903 0.2836529 0.026709378 0.19570501 0.027686277 0.027551522 -0.026791357 0.26108155 -0.3732765 -0.18800704 0.11362919 -0.14290449 -0.28667694 0.13723724 0.08219476 0.13135915 -0.17210384 -0.3076838 -0.27252442 0.08480471 -0.1905769 0.094527654 0.11978268 0.0027042367 -0.04876609 -0.44345078 -0.12646572 -0.30427355 0.067658074 -0.03424726 0.013748922 0.066099495 0.031736173 0.038085867 0.15115303 0.0410281 0.21552755 -0.17602244 -0.039174564 -0.2351134
和 -0.13979022 -0.45377743 -0.16710632 -0.45116434 0.100150585 -0.1428515 -0.28356168 0.15248185 0.118605465 -0.050632294 0.2682128 0.02326378 0.041907385 -0.2983124 -0.27551672 -0.038968075 -0.05061311 0.06501732 -0.20375918 0.12895489 0.02254164 0.11627946 0.17577094 -0.3297936 0.14390248 -0.29779792 -0.096268095 0.03938005 -0.26737797 -0.021959705 0.28609842 -0.027320592 0.29212272 0.32030565 -0.08170904 -0.2821028 0.33739957 -0.08127913 -0.094813555 -0.27952784 -0.02894807 0.12175348 -0.087839454 0.12448241 0.019887524 0.004808825 -0.12573878 -0.29939106 0.0024112628 -0.34185067 -0.02169942 0.2631855 0.30138782 0.19335929 0.21890545 -0.09057942 0.1152268 -0.26386118 -0.018514628 0.04249946 -0.0999661 0.21360335 -0.1329621 0.33898973 0.1841577 -0.090332195 0.040578928 0.20934536 -0.31366488 0.22691096 -0.13733672 -0.15645036 0.09334054 -0.2191075 0.0042293407 0.19836378 0.4899651 -0.18088812 -0.0015007772 -0.05264971 -0.4994868 0.5071379 0.2722527 0.049321402 -0.49894676 0.1457301 -0.032023005 -0.0958154 -0.29350513 0.19834048 -0.024229307 0.38580465 -0.23174536 0.23653969 -0.044552717 -0.108459905 -0.45625737 0.1813291 0.118609026 -0.24784787 -0.15232171 0.14551513 -0.09042228 -0.028100708 0.03971468 0.048479326 0.011372152 0.2353102 -0.09259395 -0.21675213 0.057126388 0.7370547 0.26432797 -0.12779815 0.11617462 0.32027742 -0.066981755 -0.1836898 0.04791685 -0.3784099 0.2247948 0.17471957 -0.13278422 -0.100639164 -0.04113 -0.25023726 0.0016654659 -0.34314933
开 -0.35358402 0.20457436 -0.2776082 -0.17455707 0.3092673 0.6183129 0.094618 -0.12974533 -0.050075244 -0.063026704 -0.026802992 0.12977208 -0.17615843 0.07828524 0.55239344 0.13136393 -0.084594235 -0.15948685 -0.010965373 -0.1633745 0.11270343 0.4283507 0.11321893 -0.16541727 -0.10455063 0.054578178 0.11162175 -0.17401543 -0.20420909 0.2013076 -0.22462904 0.18327408 0.6156783 0.38215855 0.15227538 -0.052115005 -0.12430671 0.42180565 -0.1351516 -0.19849063 0.18126126 0.08464723 0.27849004 0.38611856 0.34869117 0.16413197 0.036552254 -0.087671295 0.29824227 0.30329758 0.008592244 0.15619822 0.14313316 -0.041761015 0.3785124 -0.093412064 0.2866066 -0.082955174 0.07307261 0.07378094 0.5571861 0.066256195 -0.19858205 -0.21007013 0.015764367 -0.053046256 -0.09236054 0.19915825 0.0823912 -0.2575988 0.061936773 0.3758467 0.31837478 -0.29246137 0.26136985 -0.19098386 0.0054971264 -0.2341158 0.099934034 -0.33331552 -0.09921448 0.40889364 0.12277952 0.22678427 0.09365303 -0.11918013 0.4105955 -0.041918818 0.11651634 0.2898485 -0.1089955 0.11698522 0.37568662 0.20195848 0.5184795 0.067629024 -0.220289 -0.16627784 0.059295125 -0.7172141 -0.15535167 0.036680408 0.19645688 -0.12149279 0.1199117 -0.35870665 -0.14728135 -0.41085982 -0.14207427 -0.100468874 0.10567359 -0.0060742893 0.040974837 0.069039285 0.16564755 0.030811781 -0.12836355 -0.0059038303 -0.07368363 -0.27333093 -0.1779702 -0.047055837 -0.19438255 -0.12257406 -0.13546817 -0.046473045 -0.22854756 0.2040212
耗 -0.24144296 0.15431204 -0.6057951 -0.16617197 0.33725196 -0.057033334 0.046389636 -0.09203936 -0.40117496 0.236999 0.36786467 0.46478587 -0.058980998 0.28155154 0.10865205 0.18658595 -0.038318336 -0.35205314 0.049792595 0.012599798 -0.0077526597 0.5104003 -0.10406604 -0.4979863 0.0033264619 -0.00041158425 0.059568506 0.041794572 -0.26126155 -0.30811772 -0.43140382 -0.27165323 0.28357387 -0.012245184 -0.19124286 0.057732046 -0.13104558 -0.084631704 0.03491964 0.449968 0.2652642 0.3381611 0.24371633 0.03211763 0.4515048 -0.5592418 -0.09174286 0.07992486 0.09866711 -0.37236983 0.31165528 0.058939084 0.12118007 -0.12206045 -0.25691202 -0.036358383 -0.025840035 -0.5165708 0.011395137 0.43256375 -0.18291591 -0.4419003 -0.07892995 0.029539568 -0.025010154 0.35442856 0.23673874 -0.1653682 -0.31579295 -0.5284465 0.38082796 -0.10290491 -0.055797208 0.32538933 0.084987506 -0.09387156 0.29503304 0.12188993 0.1989222 -0.42052582 0.1536996 0.06411944 0.3304594 0.41882116 0.014114907 -0.035654984 0.054179184 0.45152283 0.10135515 0.21663195 -0.5157507 0.31401664 -0.08509732 -0.18624417 -0.15450571 0.67743564 0.20778507 -0.15971066 -0.29301873 -0.5429142 -0.2223357 0.09584854 0.08074474 0.3390837 0.15425576 -0.28735706 -0.04297264 0.13451408 -0.4849092 -0.3882738 -0.014336737 -0.19500974 -0.014291151 -0.063188486 -0.627635 -0.40815 0.24903935 -0.33736426 -0.55698466 0.2403451 -0.07622424 0.17286676 -0.17920846 0.19035289 -0.48061037 -0.124406345 -0.37122908 0.054956824
？ 0.09489646 -0.6878703 -0.087572336 -0.27942047 0.47624603 -0.22564861 0.063911885 0.23377435 -0.15038909 0.42787477 0.033613723 -0.051154945 0.35130993 0.07116455 0.064329706 -0.12369215 0.17442174 -0.6316648 0.007441631 0.13213041 -0.15599538 0.012276355 -0.1767935 -0.44179186 -0.04317737 -0.04036489 0.13362226 0.16625166 0.099015586 -0.026005426 0.50117815 0.019142741 -0.283646 0.4337473 -0.04215108 -0.022618238 0.008385315 -0.00444111 -0.29655495 -0.11763056 0.24810423 -0.10537043 0.13840294 0.45234522 -0.28130132 0.21170467 0.23853783 0.52049875 0.19583276 -0.12916692 -0.5217174 -0.051619142 -0.14662981 -0.0541674 0.16795756 -0.21525417 0.19748592 -0.276451 0.22446412 0.021354215 0.49607235 0.3431762 0.10430504 0.10754976 0.20283556 0.33191112 -0.13571838 0.21987009 -0.3447041 -0.23147012 0.27395874 -0.023012629 0.29925415 0.28955027 -0.12997825 0.02080722 -0.1278951 0.4625441 -0.45815876 -0.08926058 -0.07161922 0.3366703 -0.06656724 -0.09263696 -0.2984093 -0.12666124 -0.04178375 0.031122329 0.080655605 0.36828107 -0.2004921 0.54343617 0.17363901 0.023372967 -0.1659007 0.07958328 0.23740181 -0.1015538 0.13975967 0.17971656 -0.18910582 0.08634917 -0.2346487 0.20652518 -0.3395235 -0.36867943 -0.42475098 -0.0812307 -0.0014087154 0.08348421 -0.26109698 -0.00832088 0.17924388 0.29502064 -0.37156788 0.23707707 0.11420941 -0.06109121 0.1973264 -0.046663642 -0.16564423 0.24664637 -0.0032759898 -0.2308194 -0.09477724 -0.6236693 -0.22663227 0.05134236
里 -0.08736867 -0.30477494 -0.35795125 -0.363157 0.11964687 0.25915536 -0.5092241 -0.41270882 -0.10371497 0.5112408 0.5067636 0.34901235 -0.5305213 -0.042464532 0.20003664 0.388741 0.073430106 0.16727315 0.17111887 -0.10327316 -0.15182255 0.063912176 0.14424652 0.19081882 0.2692594 0.37794468 -0.06579759 0.85053533 -0.059192654 0.03210779 0.021168504 -0.25260213 0.33331418 -0.3453276 -0.22050051 -0.036555186 0.0075436113 -0.09729031 -0.322292 -0.4404988 -0.0075907065 -0.046613127 0.80872697 0.5332167 0.097793475 0.45004293 0.11046694 -0.3626874 0.009141861 -0.5078169 0.1888624 -0.30881763 0.03515689 0.28779644 -0.029264694 -0.25781196 0.18458307 -0.51337135 -0.2007523 0.2167629 0.1120014 0.34367728 0.16144377 0.040922105 0.19169362 -0.13935184 -0.5790409 0.18681571 -0.2758056 -0.010415198 0.29197183 0.05173354 0.101232424 0.519568 -0.27920341 -0.28321972 0.040893167 -0.22693217 0.031907495 -0.42889345 -0.3133006 0.24223411 -0.12022974 0.09616671 0.23185953 -0.05645732 0.040610895 -0.27138382 -0.037880223 0.01599395 -0.1507104 -0.2072081 0.03958774 0.26694563 0.009621103 0.080427855 0.020431701 -0.07093715 0.023984693 -0.23588848 0.03332863 -0.30913597 0.0036277254 0.23413554 0.09761635 -0.35510185 -0.19695918 -0.7100657 -0.18003844 -0.30012706 -0.40306762 0.32848144 -0.293758 0.061802156 -0.06625283 -0.18347013 0.10729992 0.057595246 -0.07152425 -0.09043607 -0.22634643 0.12068188 0.0912622 -0.32747412 -0.3472844 -0.13005172 -0.15126573 0.11450965
么 0.30739644 -0.56165093 -0.29074448 -0.3835627 0.3621171 -0.23807324 0.6028904 -0.009074884 -0.1300827 0.59871614 -0.005573687 0.25486475 0.059239987 -0.13731964 0.13973406 -0.21949406 0.14047758 -0.09326632 0.033690542 -0.1018289 0.26177645 0.04607661 0.13636826 -0.3712856 -0.3181054 -0.47524866 0.29869196 0.13779412 0.40709892 -0.18658553 0.15849158 0.12382646 0.15004581 -0.042687118 0.321108 -0.2601954 -0.13685334 -0.27775854 0.17460495 -0.06501893 -0.058783833 -0.12577981 0.090656914 0.42541412 -0.17040664 0.51941484 0.07579251 -0.02933499 0.15271786 -0.041948043 0.36914453 0.03709679 -0.124469616 -0.19069813 0.24290283 0.07143433 -0.025307434 -0.09084855 0.0046214946 -0.09559701 -0.3252095 0.36823818 0.17858604 0.24755768 0.20634878 0.11967382 -0.009488398 -0.010523265 -0.20201398 -0.43771502 -0.25156683 -0.22351475 0.5984641 -0.23299769 0.19870493 0.20046958 -0.7028592 -0.04658521 0.24114846 0.21962287 -0.36232817 0.5283122 -0.04178861 -0.061630037 -0.3339415 -0.07807262 0.15232119 -0.012455358 -0.008999088 0.17180976 -0.13363706 0.44758794 -0.008584825 -0.07364907 -0.30866262 0.20267004 -0.5097875 -0.21086787 0.33762127 -0.05415568 -0.2838517 -0.10465842 0.5589614 0.55364156 -0.5998968 0.13207807 -0.5703293 0.09841784 -0.25823453 -0.06243553 -0.24352284 -0.078413256 -0.2454989 -0.047164246 -0.2886828 -0.08724713 -0.30740792 0.1319408 -0.22187385 0.24156545 -0.1235324 0.1041113 -0.44179395 -0.45552933 -0.2681192 -0.014209136 -0.66047275 0.3988224
换 0.43890518 -0.28901106 -0.29997915 -0.06380145 0.26064026 0.21731637 0.14594686 -0.021208387 0.1785309 -0.21871327 -0.039193925 0.29871148 0.082609855 0.018752905 -0.15857275 0.23971768 0.023558868 0.07329888 0.018124752 0.07925765 0.003966268 0.24022178 0.28926852 -0.13450207 -0.039814427 0.43645346 0.20181158 -0.023415867 0.14115204 0.09319091 -0.040757425 -0.007998864 -0.07710879 0.11378452 -0.3293011 -0.16092628 0.10490271 0.20361632 -0.08536203 -0.37503898 -0.18047208 0.1846917 0.18893112 0.5783458 0.24462065 -0.06965709 0.21827942 0.06483599 0.15529977 0.07554257 -0.25012678 -0.000102443984 0.0007479977 0.26100215 0.34474844 -0.0035472196 0.27629587 -0.17337345 0.087045185 -0.098119214 0.29996833 -0.14967881 -0.23062317 -0.6102252 0.18463734 -0.45049232 0.012826043 -0.17651924 -0.4047868 0.10256859 -0.023401653 -0.27945226 0.02449176 0.04564328 0.091448374 -0.07674561 0.04813751 0.09215692 0.21882765 -0.37954777 -0.2504779 0.2469285 0.26053858 -0.1795858 0.11849922 -0.29309595 0.070476875 0.038931385 -0.21228169 0.3964229 -0.08589031 0.17184041 0.1575375 -0.08592471 0.25336248 0.49701843 -0.2959328 0.15924627 0.015430702 0.5185156 0.016450418 0.010273839 0.090490855 -0.036475874 0.12325855 0.24592005 0.31788757 -0.14270887 0.19845232 -0.25387424 -0.007485811 -0.08617918 0.41797456 -0.09786146 -0.16175525 0.07306022 0.115636714 -0.2500593 -0.08663426 -0.23502687 0.43699598 0.15424892 -0.09701867 0.40198308 -0.43791494 -0.42947173 -0.24822457 0.0635106
下 0.097475134 0.010021342 0.022078974 -0.068685554 0.5856252 -0.04001556 -0.21619129 -0.10300769 0.031458322 0.62910616 -0.2853827 0.096712 -0.19732803 -0.37138453 0.1511168 -0.09606109 0.009421735 -0.41252637 -0.3708998 -0.2761565 0.108364105 -0.31399986 -0.14842097 -0.47399768 -0.0887831 -0.10993155 -0.015605284 -0.036136717 -0.08444739 0.14109209 -0.25389558 0.13384727 0.072293006 -0.3177132 -0.16577388 -0.20568219 0.006724535 -0.49479243 0.051295947 0.022407265 0.43421182 0.04448838 0.11774628 0.24907292 0.367458 0.19300216 -0.14579058 0.11288307 -0.08042001 -0.39007157 -0.19454902 0.01258726 0.16213584 -0.05618982 0.40742964 0.15849315 0.13043928 -0.31520244 -0.2731761 -0.38746145 0.33201125 -0.18173325 -0.089207426 -0.15110339 0.5445376 -0.29344258 -0.12300789 -0.3242112 -0.4096487 -0.08497667 0.31317055 -0.29243264 0.33198997 0.17820385 -0.19407332 -0.15014543 -0.030417392 -0.42899516 -0.00031866014 -0.30531818 0.09621804 0.0687777 -0.044573862 -0.06369982 0.4015762 -0.1362693 0.38243374 -0.11043482 0.027060682 0.09010517 0.097705975 0.26269168 -0.24542709 0.33737665 0.22998047 -0.19845048 -0.21334481 0.11016764 0.09788761 0.19797194 0.14463572 0.06562401 -0.16174209 -0.33522904 -0.26051113 0.28685898 -0.15932599 0.03365357 0.0013269429 0.06841677 0.026917143 0.08381783 0.022113 -0.08022368 -0.1232765 -0.09911984 0.32424498 -0.15747355 -0.07665308 0.27053937 -0.03553324 -0.19840495 0.28068113 -0.105046704 0.07315608 0.3560921 0.33995113 0.010454178
款 -0.007516918 -0.33481094 -0.15812366 -0.2505065 0.4648471 0.2213168 -0.47464806 -0.11159991 0.11560633 -0.38962704 0.106294826 0.42060384 -0.26874477 0.013909282 0.014083742 0.22403753 0.18347086 -0.12807159 0.23899579 0.36779132 0.5430468 0.47021905 0.115488894 -0.14922023 0.020783685 0.12914385 -0.130174 0.2531573 -0.53059316 -0.003855122 -0.13267729 0.29296643 0.032170564 0.50642985 0.3498074 0.2813105 0.1430544 0.012336496 -0.2705406 -0.51625264 0.028828193 0.2353691 -0.2288791 0.30724406 0.07536296 0.31389815 0.16585809 0.011527077 0.22709993 -0.00049057615 0.1174133 0.2558742 0.37623313 0.070106804 0.36214975 0.16471711 -0.40083364 -0.06716286 -0.3485005 0.007071537 0.18527487 0.05370132 -0.092870206 0.3814565 0.16461875 0.25252137 0.21784082 -0.082051285 -0.57740253 -0.066202775 0.03886587 -0.3172233 0.34990233 -0.20124523 -0.5410275 0.27752092 -0.4166224 -0.23734047 0.09323516 -0.26225728 0.27274856 -0.05709551 -0.099648945 -0.18295152 -0.05218047 0.22659026 -0.052174505 0.1915787 -0.20878501 0.6201747 0.0340416 0.34753373 0.2580299 -0.06872342 -0.26738575 -0.12180943 0.23969364 -0.12095266 -0.0070426716 -0.22648238 -0.1908426 0.20142467 0.50247264 -0.11567988 0.14005046 -0.6455531 -0.23827477 0.1584902 -0.29762137 -0.37831908 -0.18515639 0.09779032 -0.12481759 0.72458476 -0.3008124 -0.06957709 -0.3588883 -0.1725155 -0.3768291 -0.18518409 0.068823025 -0.17195453 0.21345252 0.47346154 -0.14766812 -0.016830817 -0.44848418 0.017402675
4 -0.26505896 -0.25532606 -0.23068437 -0.19228809 0.02154584 -0.3368671 -0.30232352 -0.21033973 -0.27883416 -0.25014898 -0.27864653 0.32456055 -0.16405131 -0.23498328 0.20874713 0.42876548 -0.24692994 0.121483296 0.29530874 0.4123258 0.07878344 0.03528904 -0.36930168 -0.1676283 0.16075556 0.4257565 0.4068582 0.18677251 -0.13838564 0.09589468 0.16152291 -0.022569714 0.2715856 -0.21359085 -0.251591 -0.2517678 0.10905248 0.20777515 -0.18753079 -0.3535828 0.12938425 0.34588325 0.39090624 0.2559225 0.20054285 -0.13094385 0.16827348 -0.24997796 -0.08893663 -0.4249942 0.0559668 -0.045707837 0.39545488 0.1888353 -0.27499533 0.04811292 0.055538975 -0.26532668 -0.38232133 -0.311655 0.7204789 0.11095631 -0.16209121 0.13042769 -0.15503968 0.15545614 -0.05970143 -0.067364424 0.020464705 0.03187057 0.5083907 0.081293054 0.3130771 -0.17210725 0.31310531 -0.068961866 -0.0037536295 -0.08013077 0.35620388 0.041457646 -0.32026005 0.057844713 0.21248838 -0.15867402 -0.51836205 0.12180299 0.12881961 0.07040554 0.34304237 -0.20948294 -0.108167276 -0.12055837 0.0065853535 -0.2242856 -0.27095076 0.14214799 0.11334385 0.22687179 0.011566018 0.059269547 -0.34852588 -0.15670416 0.16632895 -0.08420596 -0.055445537 0.07757355 -0.5460513 -0.10640325 -0.453193 -0.11859196 -0.15999931 -0.46916196 0.1254726 0.13177365 -0.1404039 0.28158873 0.009532426 -0.43820074 -0.049483947 -0.0010373455 0.37940675 0.10510152 0.017216468 0.09903203 -0.04402034 -0.18748699 -0.292724 0.05847197
说 -0.30442324 0.07250109 -0.24543382 -0.1163262 0.26347917 0.22625817 0.046898834 -0.40939838 0.015334797 0.13053937 -0.14289296 -0.07086889 0.016314253 0.08705079 -0.056981526 0.07336005 0.14328182 -0.022174357 0.051301703 0.1271558 -0.0002368747 -0.0079935575 -0.12020005 -0.14245474 -0.13899581 0.41511947 0.2677229 -0.04107411 0.38497293 0.3059866 0.20695256 0.104098275 -0.103888616 0.39082605 -0.38002917 -0.02441929 -0.06594252 -0.36079526 -0.12282944 -0.35272884 0.26454368 0.0931067 0.15005864 0.52385277 0.3573879 -0.09851938 0.021477265 -0.14017032 -0.011295119 -0.11014298 -0.015667027 0.17676193 0.09490998 -0.54429775 0.3563479 -0.052486673 -0.15678556 0.029934147 -0.13501672 -0.20921297 -0.040668778 0.12103404 0.21810842 0.040003 -0.09900431 0.21034518 0.14230014 -0.10033054 -0.907854 0.017238641 0.04453092 0.3105403 0.0210124 -0.12602705 0.36419725 -0.015949747 -0.40102842 -0.109842524 -0.00678937 -0.09601226 -0.119389094 -0.0575431 0.108524926 -0.1444262 -0.044691514 -0.08557117 -0.28629202 0.08795917 -0.21160987 0.286121 -0.13270217 0.11033179 0.032404114 -0.073885724 0.10603037 -0.027207686 -0.016715014 -0.29191145 0.12359728 -0.038454447 -0.019827513 0.28478813 0.08248567 0.10618252 -0.056248948 0.013827903 -0.028836614 0.13381834 -0.5472114 -0.083595015 0.077814125 0.110394284 0.3958456 0.117121175 0.34862235 0.04600356 -0.25545186 -0.33165875 -0.10275636 0.26592156 0.5210168 -0.10651893 0.13128945 -0.11234845 -0.2972059 -0.37057117 -0.16992147 0.12722337
很 -0.03425871 -0.16110131 -0.27804002 -0.05805498 -0.19132991 -0.012788535 0.028668739 -0.14756186 0.20428574 0.18591613 0.007972191 -0.033357188 0.042440295 0.31954372 0.50213385 -0.121772 -0.3105503 -0.021732535 0.15948093 -0.05772568 0.13379829 0.11386521 0.0056935325 -0.031804174 -0.11844884 -0.1380547 0.4595588 -0.060106784 0.1286572 0.15846783 -0.23614053 0.10577815 0.67959297 0.14914665 0.029072957 -0.30166444 -0.25130016 -0.3316322 0.09328542 0.31151164 0.021561686 -0.05187713 0.29676694 -0.1323465 0.44485295 -0.17553158 -0.28982353 0.011083393 -0.13529256 0.15419282 0.45137703 0.11431111 -0.13118055 -0.3066955 0.19139576 -0.3926041 -0.05013665 -0.24540737 0.28149924 0.08503986 -0.2347517 0.040291037 -0.0035373012 -0.17244022 0.056210335 0.30491334 0.112296715 0.120804906 -0.2322743 -0.12149055 0.28101525 0.0043203663 0.32094985 -0.39843613 -0.029807758 0.44810203 -0.20036039 0.15052916 0.1197445 0.17094833 -0.39126757 0.4332991 -0.07723474 -0.02703658 -0.32221857 0.41791078 0.0051511335 -0.32623035 0.05735873 0.28879404 -0.03901842 0.4286171 -0.3725415 0.17783093 0.101231925 -0.15317714 0.10491836 0.35052583 -0.040995233 -0.01758306 -0.06632217 0.18813135 -0.13803087 -0.0023950825 0.16309586 -0.090980664 -0.3889508 -0.29716912 -0.13803808 -0.1322856 -0.24781209 0.058595404 0.11724218 0.0056755003 -0.013642912 -0.2502485 0.109835796 0.005999629 0.08660892 0.1136771 -0.045069218 -0.056773253 -0.3834744 0.004102734 -0.08919736 -0.22082213 -0.10296725 0.29826075
性 -0.26662692 0.31247842 -0.4749369 -0.22164555 0.678135 0.17097862 0.19494908 0.3167814 -0.21643317 0.36142948 -0.16941218 0.5050428 -0.24221183 0.119578056 -0.054771747 -0.28000334 -0.39985088 0.41329092 0.21081723 -0.23805858 -0.403177 -0.18062882 -0.2188419 -0.21133238 -0.105434015 -0.46193764 0.021362508 0.30674276 -0.45906255 0.03337196 -0.09454981 0.47271886 0.20562585 0.38825592 -0.28982148 -0.16283728 0.3703104 -0.5807327 -0.14653455 -0.2780162 -0.00016224066 0.45975563 0.22619504 -0.103296764 0.29499227 -0.4540231 -0.075747505 -0.1970239 -0.02938369 0.06801844 -0.078602634 0.13626863 -0.57682955 0.29228503 -0.16641955 0.35873452 0.3302386 0.27687156 -0.23328647 0.19011208 -0.0038356523 -0.12901817 0.10242011 -0.030454211 0.51372766 -0.16569914 0.624437 -0.41110006 -0.14148615 0.045073606 0.40973616 0.19953433 0.04767858 -0.1911084 0.07664769 0.14698805 0.06073298 0.043531686 -0.6875396 0.15560666 -0.37918913 0.224359 0.30722743 -0.34497938 -0.15618104 -0.17298649 0.1870029 0.7831482 -0.2780814 0.47879162 0.22872624 0.29687846 -0.32909033 -0.21004154 -0.056906633 0.46141163 -0.30754355 -0.13150968 0.24114566 -0.06523149 0.13261963 -0.21374384 -0.3191503 -0.0069314186 0.039345186 0.061920743 -0.65712315 0.040117 -0.07374398 -0.3209852 0.07555417 0.10201519 0.48716202 0.18106933 -0.039696936 0.15833667 -0.09412226 -0.25317475 0.31211746 0.18030244 -0.11851589 0.03392554 -0.29261103 0.27529573 -0.2426218 -0.09690123 -0.5681098 0.21801805
！ 0.1172015 -0.42544082 -0.3716318 -0.37093875 0.29413852 -0.110703796 -0.1587101 0.16194448 -0.3151707 -0.1346884 -0.0063445936 0.18200839 0.19987637 0.14382589 0.20877433 -0.0045484477 -0.14515884 -0.34733438 0.15298223 0.004885109 -0.089204684 0.2341679 0.0467112 -0.2551376 0.059242934 -0.04849368 0.24176095 -0.04628885 0.077941865 -0.13546911 -0.15554252 0.10959229 -0.024984933 0.08461905 0.103522316 -0.19879588 0.023222715 -0.4632013 0.0018686799 0.36076704 0.21014665 -0.35026857 0.15583283 0.034268387 0.013090113 0.008937239 0.026875135 0.5671516 0.115936324 0.09348384 -0.1908776 0.18381302 0.045588326 -0.11275895 -0.07608169 -0.41192278 -0.0101966 0.24904184 0.19125472 -0.28848103 0.38566694 0.5137832 0.4094583 0.09748048 0.15410882 0.0073403507 0.0891652 0.25562778 -0.15789953 0.2562294 0.19913127 0.30247343 0.35700437 -0.5562601 0.12579516 -0.17059818 -0.30978376 0.06467214 -0.21040983 -0.5691456 0.35278887 0.25588942 0.075415306 -0.07385407 -0.10604587 -0.031275753 0.22237512 0.10259608 -0.2294108 0.31778598 -0.16779919 0.25278494 -0.021342307 -0.050625212 0.032125566 -0.14415038 -0.013573413 0.057679415 -0.18710625 0.26799116 0.07651542 -0.05813833 0.099996984 -0.04234219 -0.14167592 -0.17819689 -0.2710728 -0.39704138 -0.019451957 -0.022087594 0.021192515 0.04154225 -0.19309439 0.29717895 -0.17952159 0.20042524 -0.07244474 -0.1489405 0.046402223 0.19500892 0.15833342 0.07182525 -0.13883786 0.05184446 -0.26609764 -0.13663605 0.075103424 -0.42488053
来 -0.023929413 -0.40792677 0.06439287 -0.068459146 0.27521762 0.20259571 0.36514148 -0.17642829 0.14913815 0.3655592 0.1224101 -0.11629214 -0.024832496 0.19158848 0.23458111 -0.109651886 0.21660626 -0.21740839 -0.14834695 0.1984858 -0.21425919 -0.23404367 0.16286753 -0.19300778 -0.11433786 -0.15545423 -0.07946413 0.27552617 -0.0042683217 0.32583055 -0.19659014 0.11575509 0.097653896 0.26719874 -0.14680071 -0.071965575 0.28538194 -0.44755396 -0.033455368 0.07130224 -0.01666532 0.17877002 0.11975054 0.47950742 0.004120656 -0.40072688 0.40984043 -0.14473054 0.08869406 -0.015365891 0.25640547 0.10674739 -0.15817882 -0.15050115 0.12884222 -0.26502544 0.00010059375 -0.013126497 -0.48588043 -0.06251946 0.32432237 0.22171384 0.05097752 -0.15777026 0.22331944 -0.16442418 -0.14364782 -0.019425493 -0.21825044 0.11283351 0.11499677 0.35263374 0.028298512 0.041086376 -0.3579485 0.046316892 -0.26532164 -0.2577109 0.20030832 -0.26420397 -0.37883386 -0.29137653 -0.20073552 -0.31929195 0.043580834 -0.21753103 -0.4477975 0.3015894 -0.044890385 -0.061558887 -0.10744246 0.16862716 0.03906724 0.21127976 0.24366784 0.3752191 0.071491964 0.3939557 -0.187432 -0.16667348 -0.36835143 0.3332881 0.2892467 -0.27163076 -0.40751776 -0.33050358 -0.3055808 -0.5756699 -0.312815 -0.25074172 -0.20681159 0.2173156 0.17128722 -0.098897174 0.30731413 -0.25391504 0.14099303 0.20627616 -0.05611737 0.02733797 0.24788319 0.21430889 -0.09637661 -0.022188993 -0.12718537 0.2610096 -0.0011676961 0.15903561
格 -0.2928138 0.15016668 -0.5237253 -0.26911822 0.27301854 -0.37129214 -0.7193514 0.23309964 -0.34909257 0.64128137 0.5206604 0.73575926 -0.17015435 0.4983541 0.24094215 0.23029305 0.25798905 -0.03336502 0.20671305 0.25074482 -0.18452941 0.2324627 0.0300283 -0.26373047 0.20681143 -0.07750455 0.23548678 0.08293245 0.45949852 0.23979926 -0.013530172 0.3783521 0.07246338 0.30100495 -0.2638769 -0.10507152 -0.013649088 -0.09465235 0.05471132 0.030741846 0.4660092 0.5047829 -0.18228379 -0.08402398 0.23077951 0.37073252 -0.12848945 0.27077588 0.08927143 0.48038802 0.4224072 0.408073 0.120268315 -0.1313508 -0.011286015 -0.23352711 0.22898647 0.084664285 -0.17588861 -0.23557912 0.09649249 0.10870339 0.1529814 0.13402882 -0.06655504 0.11827354 0.2714141 -0.34074682 -0.07876927 0.20458576 0.42252833 -0.08450738 0.45437104 0.36767247 -0.21263602 -0.22100416 0.024582298 0.21747755 -0.26156408 0.019807212 -0.14162457 -0.39317095 0.27924377 0.12891725 -0.056001455 -0.22897592 -0.005327667 0.14958648 0.20329307 0.27075335 0.1910502 -0.10928571 -0.19258209 -0.17230086 -0.544067 0.35317066 -0.2576731 0.15184723 -0.08247538 -0.015918436 0.047222927 0.29299888 -0.44127786 0.10436373 0.045510225 -0.32313684 -0.33202565 -0.019329553 0.3595397 0.26870185 -0.56701 -0.28564483 -0.07631497 0.287324 -0.3281053 -0.1015579 -0.14791834 -0.050952908 -0.33765593 0.29506424 -0.019161468 -0.05144223 -0.27378196 0.29626304 -0.46345785 -0.044716712 -0.43584785 0.16762549
加 -0.0682307 -0.5518442 -0.3115701 -0.25232846 0.026240474 -0.11120127 0.082135856 0.17482142 0.19230607 0.14894229 0.21038598 -0.048226725 -0.050290868 0.17407347 -0.06783361 0.0004802928 0.09479594 -0.22449374 -0.18667985 -0.054881964 0.04943309 -0.1532493 0.05184489 -0.24877356 0.093558505 -0.17487553 -0.24906512 -0.0136582265 0.33588478 -0.30165964 -0.14281061 -0.17858908 0.0736917 0.08817231 0.2518512 -0.514156 0.20634036 0.4084985 -0.049191583 -0.38788664 0.29022348 0.43403393 0.19131225 -0.01071095 0.28090087 -0.13715188 0.046311703 0.6465319 0.10204679 -0.51248103 0.02514091 -0.0030080758 -0.16105081 -0.57330704 -0.22807704 0.05984509 -0.08708879 -0.5218459 -0.05401379 -0.20972334 0.17433567 0.019715996 0.17344673 -0.121716514 -0.09533913 -0.7846603 -0.070678234 0.13982901 0.22577494 -0.089620985 0.2056848 -0.20050195 -0.23388724 0.104337215 -0.37078512 -0.04731173 -0.3875712 -0.13578339 0.08892106 -0.41292349 -0.39398003 0.31714153 -0.15500197 0.3936192 -0.25664893 0.5020081 0.18390073 0.24035014 -0.43301964 0.09719381 0.13661514 -0.25273246 -0.09569757 -0.21618167 0.11337544 0.115649566 -0.19272564 0.41392198 -0.051754586 -0.032581367 -0.33016738 0.017840363 0.19990057 -0.20720857 -0.041479975 0.40077987 0.105583884 0.05691798 -0.2354746 -0.19780397 0.019235471 0.25646675 0.48074082 0.21536425 -0.36137095 0.11726943 -0.18576209 -0.20179833 -0.3413039 -0.037438083 -0.0009640096 -0.19903322 -0.15623035 0.26168495 -0.025914399 -0.21457234 -0.041293632 0.20372905
